-0.709325 0.70
-1.440470 1.40
-1.446588 1.40
-2.167227 2.10
-2.199784 2.10
-2.174501 2.10
-2.908301 2.80
-2.872973 2.80
-2.881747 2.80
-3.618318 3.50
-3.643371 3.50
-3.619357 3.50
-4.359046 4.20
-4.344845 4.20
-4.337456 4.20
-5.093308 4.90
-5.078530 4.90
-5.817872 5.60
-5.818334 5.60
-6.537818 6.30
-6.545322 6.30
-7.305676 7.00
-7.274851 7.00
-7.276121 7.00
-9.443002 9.10
-9.479599 9.10
-10.940619 10.50
-10.957129 10.50
-12.463751 11.90
-12.413530 11.90
-13.903182 13.30
-13.892445 13.30
-13.910801 13.30
-15.387291 14.70
-15.372283 14.70
-15.336493 14.70
-15.264568 14.70
-17.533391 16.80
-17.497371 16.80
-17.551055 16.80
-19.731444 18.90
-19.733176 18.90
-23.410605 22.40
-23.386014 22.40
-23.350686 22.35
-23.299773 22.35
-27.055361 25.85
-27.043008 22.85
-27.039083 22.85
-32.193348 30.75
-32.183419 30.75
-37.338839 35.65
-37.285847 35.65
-37.305128 35.65
-42.476364 40.55
-42.457084 40.55
-49.768301 47.55
-49.796356 47.55
-49.791738 47.55
-64.550519 61.50
-64.537012 61.50
-130.186500 123.90
-130.183383 123.90
-142.438747 135.50
-142.457565 135.50
-170.520112 162.00
-170.523460 162.00
-198.085762 188.00
-198.078489 188.00
-335.467914 317.80
-335.401992 317.80
-400.475846 379.30
-400.442250 379.30
-646.463314 611.60
-646.464469 611.60
-900.886482 851.80
-900.831066 851.80
-950.627538 898.80
-950.582628 898.80
-1001.263792 946.70
-1001.247398 946.70
-1035.436992 979.00
-1035.454772 979.00
-1045.839730 988.80
-1045.818141 988.80
-1052.815796 995.35
-1052.823647 995.35
-1058.115990 1000.35
-1058.133077 1000.35
-253.414366 240.20
-253.386427 240.20
-184.362105 175.20
-184.353100 175.20
-201.930247 191.80
-201.925167 191.80
-430.366544 407.60
-430.334680 407.50
-530.848682 502.50
-530.802849 502.50
-504.411671 477.50
-504.349328 477.50
-750.288654 709.90
-750.293041 709.90
-878.813020 831.30
-878.828721 831.30
