{"layers":[{"batch_input_shape":[0,1],"class_name":"InputLayer"},{"class_name":"Dense","units":5,"activation":"relu","weights":[[[0.519989252,0.385710329,0.905207217,-0.621863365,0.959721804]],[0.047370389,0.095494017,0.040525183,-0.099598013,-0.033278845]]},{"class_name":"Dense","units":10,"activation":"relu","weights":[[[-0.53180939,-0.198430121,0.549237132,-0.030035874,-0.098840028,0.340387464,0.606999755,0.525019705,-0.08013007,0.017988466],[-0.55640775,0.626538992,0.464942932,-0.288424611,-0.563138127,0.050648835,0.172154471,0.520525038,-0.169838682,-0.206472546],[-0.077757329,-0.280403137,-0.007054228,-0.480706871,-0.308996081,-0.350037813,0.409508079,0.054793086,-0.116476625,0.134524107],[-0.128541484,0.187083691,-0.112722158,0.465868145,0.844528735,0.231404111,-0.138725981,-0.115495116,-0.586332917,-0.117573962],[-0.430164874,-0.033051848,-0.242260009,0.597384214,0.242945746,-0.003748882,-0.43057552,-0.378302068,-0.434950054,0.631837964]],[0,0.189548954,0.095182814,-0.035417914,-0.067400441,0.164661586,0.12182907,0.09937267,0,0.100709997]]},{"class_name":"Dense","units":1,"activation":"relu","weights":[[[0.555125296],[0.599545062],[0.309474826],[-0.301102132],[-0.506662309],[0.402683169],[0.031818159],[0.709724963],[0.190749809],[0.411961764]],[0.08185982]]}]}

