{"layers":[{"batch_input_shape":[0,1],"class_name":"InputLayer"},{"class_name":"Dense","units":10,"activation":"relu","weights":[[[-0.12257041,0.423434943,-0.203860447,0.488346875,-0.625996232,-0.510968566,0.316848129,-0.433868498,-0.602196395,0.047855601]],[0.124608345,0.082147196,-0.004276209,0.085290022,-0.104317203,0.046115458,-0.070135586,-0.088052273,-0.095202647,-0.057101965]]},{"class_name":"Dense","units":10,"activation":"relu","weights":[[[0.682770491,-0.359183639,0.102082491,0.222601324,-0.053569138,-0.284463435,0.213180393,-0.538371384,-0.046963308,0.255832165],[0.591858149,-0.347136825,-0.029509582,0.192316636,-0.322923422,-0.055268012,0.324546456,0.120284311,0.252501726,-0.116721109],[-0.265504777,-0.219552755,0.28660804,-0.184185416,-0.425906271,-0.057611853,-0.054206237,-0.442993462,0.316955745,0.477212965],[0.57781589,0.091056764,0.419017047,-0.374000669,-0.009033918,-0.225776747,-0.05734482,0.200589448,0.364527613,-0.536615908],[-0.357477069,-0.081505731,-0.338498682,0.326656193,-0.447160095,-0.443086028,0.190708622,0.453779012,-0.332635343,0.206674635],[0.020987457,0.190528095,0.33509931,0.186554104,0.206626341,0.183689728,0.022539925,-0.582058907,-0.264871746,-0.559271514],[-0.224520236,-0.340874374,0.29696849,-0.228739217,0.404334903,0.35121125,-0.389146298,0.18837361,0.000304839,-0.385709763],[-0.395903498,0.147973463,0.312220991,0.397279024,0.602326214,0.39467749,0.320016891,0.310647875,0.019732514,0.156287953],[-0.00450291,0.543520391,0.086015739,0.01695941,0.417139024,0.162676796,-0.27907455,0.37165454,-0.138228938,0.424369842],[-0.299364179,-0.199931279,0.487709582,-0.214324027,0.098545775,-0.134743497,-0.835087001,-0.182094514,-0.005377606,-0.27317965]],[0.094862506,0.016186619,0.041280366,-0.023225697,-0.005345428,-0.025367342,-0.035600014,0.028209759,-0.077191912,-0.109505624]]},{"class_name":"Dense","units":1,"activation":"relu","weights":[[[0.634818077],[-0.189455345],[0.119923629],[-0.087333649],[-0.167983636],[0.371900201],[0.052903071],[0.712747216],[-0.449040294],[-0.029099289]],[0.047942039]]}]}