{"mean":496.9490356,"sd":312.174408,"labelMaxAbs":994,"layers":[{"batch_input_shape":[0,1],"class_name":"InputLayer"},{"class_name":"Dense","units":5,"activation":"relu","weights":[[[0.482607454,0.551153362,0.297138959,0.124276049,0.835800886]],[0.131075904,-0.000660443,-0.041447081,0.209855884,-0.002647747]]},{"class_name":"Dense","units":10,"activation":"relu","weights":[[[-0.015365789,-0.024526875,0.468136072,0.185381293,-0.679029882,-0.447607309,0.425645411,0.095712043,-0.793841898,0.36482349],[0.130533978,0.007038536,0.023939386,-0.56972295,0.432922244,-0.46308431,0.258235306,-0.592636704,0.513596237,-0.277852416],[0.532304049,0.006510925,0.566538036,-0.25731048,-0.139812246,0.261458039,0.313913405,-0.392238975,-0.626974583,0.151803464],[0.103851698,-0.982074082,-0.562984288,-0.363509119,-0.545053422,-0.28169027,-0.031643979,0.749122679,-1.029554605,0.574982405],[-0.232599169,-0.451091677,-0.486740649,0.221608907,0.395756066,0.305476576,0.569388211,0.225469843,0.138419837,0.589857757]],[-0.062130071,0.176307872,-0.045288242,0.071381889,-0.068829969,-0.014701138,-0.039321501,0.104485601,0.179620534,0.093478806]]},{"class_name":"Dense","units":1,"activation":"relu","weights":[[[-0.424246579],[-0.727445066],[-0.234046221],[0.385326475],[-0.384864479],[0.619388819],[-0.095032573],[0.6811921],[-0.902429104],[0.750263631]],[0.092074908]]}]}