{"layers":[{"batch_input_shape":[0,60],"class_name":"InputLayer"},{"class_name":"Dense","units":8,"activation":"relu","weights":[[[0.525799811,0.620379806,0.293357909,0.38491118,-0.116465665,-0.2540299,-0.510219455,0.369158119],[-0.75647223,-0.592677414,0.960989237,-1.258811116,0.977448702,0.720653594,1.963580251,-0.871276021],[0.172861487,0.183251038,0.014824693,0.551376581,0.147796556,-0.489950418,0.351361394,-0.283445209],[0.002423642,-0.091326997,-0.146992743,-0.011688191,0.26954931,-0.260199964,-0.059611998,0.031311076],[0.02790102,0.106945693,-0.600630522,-0.062180184,0.232293606,0.332366973,0.428297013,-0.01840885],[-0.023974901,-0.024482073,-0.592472792,-0.089335442,0.578395903,-0.522243559,0.753315687,0.024445148],[0.163121298,0.14929533,0.793271899,0.182405725,0.233966857,0.711030781,0.708447456,-0.008136388],[-1.059538603,-0.902252257,0.875509858,-1.30265677,0.540899634,0.906351924,1.719655991,-0.420199096],[-0.332457751,0.099582709,0.992682219,-0.237621292,0.345765978,1.002131343,0.833431423,-0.209167093],[0.146932766,0.356193632,0.356494755,-0.401204497,-0.280259848,0.13869673,-0.320460796,-0.40621978],[-0.010644503,0.017127903,0.746412933,0.193523347,-0.160468757,0.191526115,-0.75901401,0.074882232],[0.288515955,0.087122053,0.516412675,-0.381474078,-0.467151225,0.212721616,-0.536475241,0.359759957],[0.13291727,-0.004451889,0.504931211,0.149407566,0.079634644,-0.050057091,0.631260395,0.021831203],[-0.816157818,-0.826966882,1.494441152,-1.541437268,0.734980285,1.15267086,2.0176754,-0.46422413],[-0.642529309,-0.610320687,0.941444218,-0.208165482,0.313450307,0.946449578,1.17257154,-0.535189688],[0.344554335,-0.598341882,-0.121614292,0.284768492,-0.001797058,0.120220609,0.271238983,-0.73609066],[-0.189434886,0.371186972,-0.388900101,-0.028679866,-0.145710811,-0.09255106,-0.142263293,0.266568869],[0.445776194,0.022576625,0.09363348,-0.799057662,0.303684771,0.244254515,0.207159474,0.198132053],[0.136404246,0.256971002,0.311715692,0.271230549,0.427365005,0.280812532,0.701170921,0.556143343],[-1.012007356,-0.957715511,1.354741216,-1.075014949,0.532577515,1.045299649,1.713457465,-0.509724975],[-0.706188858,-0.146026313,0.722185612,-0.399949193,0.39295131,0.569119275,0.668141603,-0.272371471],[-0.201962262,0.405902088,-0.369479388,-0.413754404,-0.10184814,-0.19928506,-0.189760536,-0.101752967],[-0.080217399,-0.314410925,0.083832286,-0.150670677,-0.0565712,0.103687137,0.333843529,-0.337212205],[-0.199803501,0.273912966,0.597627759,-0.593105078,0.037366271,-0.007834094,-0.018676868,0.346909374],[0.19664979,0.015090208,0.546718597,0.434798568,-0.103313647,0.530968845,0.508639276,0.314679444],[-0.87163049,-0.807900369,1.073189139,-1.170179129,0.621404529,0.837784946,2.137509108,-0.803570867],[-0.200529128,0.027180223,1.033508062,-1.007436633,0.725665569,0.980362773,0.885707378,-0.272848397],[-0.349515885,-0.52668798,0.440113544,0.152028903,0.036776062,0.094868243,0.04371025,-0.398821175],[0.482551813,0.560712516,-0.158290923,-1.184848309,-0.225375786,0.035175201,-0.138034001,-0.138048247],[-0.075246692,-0.546585143,-0.583605647,1.195915341,-0.009163492,-0.117908001,-0.147374824,0.22415109],[0.013523381,-0.030232893,0.678797841,-0.103841014,0.065235324,0.283793926,0.779997826,0.154604986],[-0.778496265,-0.955145359,0.896207869,-0.994420111,0.663474083,0.605236888,1.703289628,-0.60354811],[-0.595802665,-0.572220266,1.586080194,-0.636051297,0.377281606,1.139479756,1.286105871,-0.485185653],[0.16312632,-0.887191772,-0.087204635,1.030990481,-0.161995441,-0.124619231,0.013420455,0.698550344],[-0.548906624,0.287715137,0.204595983,0.593385994,0.143132284,-0.223884419,0.238490254,-0.228398472],[-0.733897924,0.143517986,-0.048010379,-0.010648996,0.083669834,0.128936976,0.133583203,-0.073161215],[0.157275155,0.315385669,0.880671322,-0.290997505,-0.008075557,0.255638212,0.595500529,-0.16946204],[-0.605292737,-0.926146269,1.209551334,-1.640543938,0.923638225,1.162496209,1.701393127,-0.487048],[-0.436417609,-0.356258631,1.214014292,-0.328922182,0.40114668,0.4720698,1.124850512,-0.236727253],[0.722377479,0.653976142,0.011313331,0.154145822,0.033750717,0.14344427,0.306397855,-0.453436494],[0.704705834,-0.401118189,-0.314801186,0.521876693,-0.197986662,-0.317242056,-1.282329798,0.514192581],[-0.482392848,-0.854362071,-0.231790185,0.840439737,0.100066461,0.086325437,0.126351789,-0.287263811],[0.050044004,0.20516476,0.427656204,0.219689801,0.177442297,0.390530676,0.334536761,0.305838555],[-1.061151385,-1.178735256,1.457333326,-1.594657302,1.184817791,0.998230457,2.238677979,-0.805799007],[-0.455590934,-0.299436569,0.922155678,-0.159516752,0.503342509,0.745958984,0.980983734,-0.363584191],[-0.92223084,0.132900491,0.301875979,1.089611053,-0.000752508,-0.058281381,0.619865119,-0.064229876],[-0.230368823,-0.463652492,0.165808842,0.066305071,0.018772017,0.271262884,0.422930062,-0.331713289],[0.10055352,0.47336176,-0.011932413,-0.168695897,-0.259789526,-0.051378395,-0.388749808,-0.046744224],[-0.26061675,-0.033991337,0.78973192,-0.229399815,0.328871161,0.360247999,0.792770445,-0.001745799],[-0.567733526,-1.237384081,1.447860837,-1.232170343,1.032269597,0.722542942,2.047565699,-0.613485336],[-0.685758591,-0.486399055,1.218657136,-0.25663957,0.51080811,1.084313512,1.265003204,-0.182701007],[0.10246601,-0.027305819,0.200442225,-0.30815497,-0.081190132,-0.293593287,-0.010458093,0.437026978],[-0.383602053,0.043007769,0.508882225,0.430669636,0.216075182,-0.048505172,0.023427865,-0.127876192],[-0.396011591,-0.491799802,-0.18759945,-0.55691272,0.077858083,-0.251875311,0.037314791,-0.334159583],[0.374607325,0.429624021,0.488523036,0.350047618,0.239959642,0.554028869,0.35210228,0.340623498],[-0.873886168,-0.809140325,1.574950099,-1.429585457,1.141301036,0.863763273,1.938175201,-0.526618779],[-0.669784486,-0.329478502,1.0319525,-0.503160179,0.534148574,1.031464458,1.055894852,-0.164356783],[-0.746376336,0.855463088,-0.435299039,0.956952274,-0.351401001,-0.225511581,-0.496743321,-0.521257341],[-0.447151661,0.819009125,-0.305835366,-0.188009769,0.006615073,0.025045356,-0.333186477,0.0496713],[0.733858824,-0.673021257,0.206396937,-0.354403347,0.175085962,-0.021397449,0.717255592,0.18238762]],[-0.026701452,0.023200238,0.433452398,0.070235781,0.13744235,0.315875351,0.626961708,0.010238941]]},{"class_name":"Dense","units":1,"activation":"sigmoid","weights":[[[-1.183419824],[-1.164983988],[0.971452057],[-0.867522657],[0.888182044],[1.02998507],[0.539050877],[-1.036729574]],[0.125532463]]}]}