{"layers":[{"batch_input_shape":[0,60],"class_name":"InputLayer"},{"class_name":"Dense","units":10,"activation":"relu","weights":[[[-0.132822618,-0.534087121,-0.387109131,-0.052448336,-0.422348768,-0.469325304,0.062196493,-0.066851437,0.228725657,0.102742478],[-0.025301017,0.413937151,-0.469957709,0.324058294,0.126003265,0.350497544,-0.304014951,0.182035893,0.209256202,0.20930168],[0.194988742,-0.476046979,-0.429854333,0.048446707,-0.224512964,0.018117696,-0.21486026,0.07882303,-0.164440572,0.119736306],[0.420524836,0.609960198,0.071706496,0.237313271,0.077566124,0.407794803,0.141838878,-0.141321436,-0.183749527,0.248126328],[0.055903547,0.414767921,0.178530529,0.079158902,-0.214265436,0.139105365,-0.42419678,0.250621438,-0.359425008,0.020298645],[0.421862751,0.510206401,-0.106412843,-0.460094899,0.13888821,0.396560848,0.143542334,0.219984308,-0.248578355,-0.405380517],[0.146528319,-0.059034046,-0.545097649,0.227675736,-0.262817711,-0.08496166,-0.299974859,-0.136985824,0.285162151,0.267026603],[0.323430657,0.310780406,-0.372176021,-0.202035874,0.202189967,-0.008312392,-0.196774319,0.145601183,-0.134898514,-0.053562913],[-0.116712518,0.400268137,-0.308850735,0.110785112,0.275625139,-0.147920296,-0.579123855,-0.177116439,0.339713901,0.284504473],[-0.132107019,0.038860135,0.161742404,-0.063479975,0.142046973,-0.103406675,-0.045330506,0.006894241,0.074571602,-0.110465236],[-0.269623667,-0.25777629,0.178908259,-0.201552913,0.324597687,0.349191934,-0.130285487,-0.471169829,0.143188402,-0.153496802],[0.043101206,-0.326835662,0.143853396,-0.049929723,0.191099212,0.168535009,-0.050041452,0.208709419,-0.276583254,-0.017701704],[-0.253992587,-0.412212312,-0.116323687,-0.086043827,-0.232692808,0.073325276,-0.184435472,0.168873206,0.180180788,0.37155357],[0.265883267,0.269058555,-0.267368883,-0.11955414,0.211936548,-0.062282495,-0.694390237,0.389552653,-0.074633062,0.045426041],[0.187007308,0.063756227,-0.524750233,-0.051698074,0.086442888,0.064885229,-0.44081372,0.063770436,0.392771631,-0.090023905],[-0.073646322,0.224624664,0.36680454,0.213581562,-0.043369561,0.218049347,0.132790372,-0.026294626,0.164447159,-0.123941623],[-0.055818509,0.426327646,0.325659841,-0.136173323,-0.352070868,-0.34363398,-0.119387291,-0.056112871,-0.053451654,0.17513594],[0.203799888,0.314715445,0.131384894,0.111515954,0.213944077,0.448213667,-0.164623991,0.077065296,-0.110801123,-0.130996689],[-0.033537187,-0.31127733,-0.707427382,-0.17646727,-0.275590211,0.046914127,-0.023799937,0.080963798,0.238818228,0.398519307],[0.096637309,0.571503222,-0.432186663,0.22941789,-0.095326386,-0.04891295,-0.615371943,0.346751004,0.323605418,-0.106339134],[0.323357642,0.216593698,-0.367971987,0.357644618,0.407093495,0.282969177,-0.550327122,0.335271209,0.315789789,0.38326028],[-0.098733224,0.335222244,0.417444915,0.011151588,0.190947995,0.22216256,-0.260558546,-0.154589713,0.023095021,0.150622502],[0.227187768,-0.34654659,0.274834514,0.279673994,0.241843298,-0.122300126,0.265858293,0.293299288,0.056989502,0.166986093],[-0.184703603,0.34337762,-0.175695479,0.183825657,0.372526497,0.20317702,0.026371198,-0.097185366,-0.082866378,-0.042138197],[-0.13351503,-0.428066194,-0.302581429,0.086810067,-0.09468288,-0.356762588,-0.170440897,-0.361830503,-0.078076027,0.274179697],[0.016215952,0.264924109,-0.68126291,0.199530929,0.001265865,0.212854967,-0.70532757,0.135165632,0.100011252,-0.082188956],[-0.108342849,0.498154104,-0.310882688,-0.102864109,0.298760802,0.318111092,-0.42693761,-0.116093196,0.171034768,-0.050699346],[0.056681208,-0.087667041,-0.175959021,0.11005614,-0.083213329,-0.050697714,-0.088298172,-0.021967327,0.079337053,-0.078570522],[-0.094711982,0.002388411,0.375767767,0.060577743,-0.081140898,0.227842703,0.249697834,-0.100112528,0.157664523,-0.205830917],[0.325235665,0.422380179,-0.292268932,-0.050267383,0.184494331,0.380804479,-0.22208409,0.334837139,0.20565711,-0.189146459],[-0.138074547,-0.623150468,-0.426635176,0.394992024,-0.210795075,0.042700101,-0.44045949,-0.091375142,0.196621373,-0.079219662],[0.151619732,0.540290952,-0.577484608,-0.066053599,0.199517444,0.274793208,-0.353634477,0.088891082,-0.150545627,0.147613794],[-0.137669206,0.513376176,-0.586130619,0.109191552,-0.201975167,0.399159849,-0.526301265,0.266017556,0.162468463,-0.160549983],[-0.051109236,-0.070170917,-0.390676558,-0.016404763,0.021659894,0.025866905,0.334799439,0.06804423,0.135561392,-0.068002373],[-0.228264406,0.221900702,-0.150428623,-0.027392954,-0.022463683,-0.004465884,0.250694722,0.099537864,0.198918387,0.215803251],[-0.19336611,-0.028001906,-0.183957815,0.240201756,0.257717192,0.012467834,0.05504195,0.08699052,-0.16748035,0.157532856],[-0.349317878,-0.179883942,-0.661799312,0.314432919,-0.22032775,-0.388213962,-0.174963772,-0.13282764,0.399255961,0.104665697],[0.231007844,-0.073190235,-0.543565154,0.069562607,-0.040968716,-0.1537361,-0.552966774,0.075485237,0.267753303,-0.007227726],[0.272184223,0.419087589,-0.630818546,0.296860754,0.017594593,0.035207786,-0.609701991,-0.050474625,0.169597045,0.17571725],[0.020813368,0.203389585,-0.410167068,0.083785951,0.210643128,-0.011965512,0.311848998,0.108854905,-0.048855431,0.10546457],[0.141258761,0.056719925,0.017641811,0.045157894,-0.294489086,-0.07328812,-0.194023162,-0.183909804,-0.158106327,0.027014384],[-0.265691668,0.145749912,0.193024531,0.049466062,0.102343448,0.026109472,0.013168674,0.407897681,0.119505018,-0.026075561],[-0.314879835,-0.190827116,-0.56923008,0.153977334,-0.185189337,-0.209177598,-0.378406286,0.050322879,0.195111185,-0.098123565],[-0.004877575,0.35650754,-0.623470664,-0.035382982,0.049983796,0.265028983,-0.475949675,-0.068493553,0.344292164,0.094580382],[0.195158705,0.151452154,-0.503631949,-0.065623604,0.129193291,0.385803193,-0.492139667,0.381918758,-0.152900755,0.133465201],[-0.083175451,-0.160981625,-0.397038221,0.055436425,-0.153556213,0.092320189,0.525512576,-0.044646922,0.164470211,-0.192471191],[-0.014927351,0.228351504,-0.107584991,-0.119686484,0.083779454,-0.041646559,-0.149729654,-0.019260025,-0.070935585,-0.157770246],[-0.09759932,0.148693562,0.317802846,0.189534694,0.220133707,0.103763893,-0.158574834,-0.074681148,-0.016384525,-0.064028352],[-0.26043579,-0.216260284,-0.566324651,0.102589168,-0.229680046,-0.173827872,-0.130696937,-0.200927928,-0.067328684,0.245375916],[0.196724489,0.085812673,-0.32106936,0.323566914,0.322202682,0.339731365,-0.539724529,0.274971128,-0.050475016,0.301146835],[0.161895797,0.190950826,-0.489316881,0.187697619,0.339928597,0.350394934,-0.13646993,0.145725027,0.32830891,0.372267306],[0.091611207,-0.086479552,0.016439205,0.229215145,0.197210252,-0.169444501,-0.205183372,-0.075854391,-0.213533342,0.221653178],[-0.010824197,0.133001372,-0.341219902,0.125817209,-0.103342772,0.061050188,0.206001461,0.147779599,-0.077875145,-0.132776111],[0.248841181,0.2630395,-0.084289841,0.024301292,0.002714712,0.069647387,-0.15897879,-0.080433175,-0.12237636,0.247065559],[-0.175714225,-0.427283019,-0.596168041,-0.099713057,-0.101721644,-0.350092381,-0.344969243,0.019597059,0.319200337,0.002807878],[0.106091611,0.312918603,-0.700067878,-0.151430547,-0.020157179,0.315858752,-0.289139122,0.206726894,0.177378431,0.201214716],[0.273635328,0.008016932,-0.710427165,0.206792146,0.023477541,0.289253563,-0.292328745,-0.103590257,-0.002964212,-0.067074656],[-0.018233623,-0.214601547,0.580472946,-0.023092646,-0.046718426,-0.234983757,-0.225499734,0.124803282,0.004185107,-0.078748912],[-0.091430001,0.268677562,-0.526109636,0.061221261,0.198122948,-0.086223237,-0.058833204,0.094323315,0.015738284,0.271637976],[-0.067026511,0.390108794,-0.028872332,0.003352306,-0.021067569,0.09551467,-0.494359672,0.429258376,0.214321017,-0.054875314]],[-0.057304244,0.00604285,0.421783805,-0.022097522,0.012092858,-0.020372322,0.360756159,-0.056362405,-0.078326926,-0.081483908]]},{"class_name":"Dense","units":1,"activation":"sigmoid","weights":[[[0.623834491],[0.361289561],[-0.51029861],[0.705932617],[0.615456998],[0.353826344],[-0.853746891],[0.581368804],[0.321151912],[0.696348608]],[-0.295394123]]}]}