{"mean":8.859274864,"sd":77.52400208,"labelMaxAbs":0,"layers":[{"batch_input_shape":[0,60],"class_name":"InputLayer"},{"class_name":"Dense","units":10,"activation":"relu","weights":[[[-0.223730803,-0.082128264,-0.343968123,0.11559055,-0.341729462,-0.032906037,-0.298559338,-0.257146776,-0.034893531,0.154043347],[-0.243409842,0.014570784,-0.149043068,-0.19421123,0.126570866,0.199249387,0.213616401,0.175495878,-0.081596948,-0.221204773],[0.243015736,-0.06139696,-0.277606815,-0.022199815,-0.281156093,-0.239353746,-0.263981879,0.280296326,0.202422336,0.02467281],[0.091637015,-0.267594248,-0.026638228,0.224504441,0.158561155,0.036059588,-0.34754619,0.001375417,-0.032968879,0.098670624],[0.199375838,-0.270147443,0.180718467,0.001489236,0.050334398,-0.173781812,0.327034146,0.129624307,0.299472719,-0.118945882],[-0.303071082,0.26758945,-0.367829978,-0.000243572,0.009673798,0.299627066,-0.113887496,0.011275102,0.188158408,-0.130974501],[0.117757715,-0.090928718,-0.395014167,0.092176862,-0.226156026,0.287233472,-0.203909248,0.157692909,0.010370135,0.161045358],[-0.217293933,-0.161520272,-0.359853894,0.040004708,-0.220833421,-0.228930041,-0.34374693,0.131921232,-0.340390444,-0.382274777],[0.214931309,0.214901805,-0.038914554,-0.184071407,-0.24047038,-0.183804363,0.044501565,0.292656183,-0.344293505,-0.114522681],[-0.077724211,0.319314957,0.532987893,0.316663742,0.060036924,-0.203105584,0.227491647,-0.000811633,-0.340412408,-0.034235772],[-0.260882586,0.037470173,-0.24277395,-0.125833079,-0.061702158,-0.010196187,-0.299947798,0.253626436,0.136046737,-0.032611057],[-0.314155161,-0.035526827,-0.360902041,-0.031995438,0.023892647,0.036145743,-0.17100361,0.108828917,0.202659026,-0.14988935],[0.014100892,-0.111943394,-0.389180571,0.254196763,-0.148631752,0.067744441,0.060528342,0.068556547,-0.10250289,0.06661509],[-0.010521906,0.163152948,-0.350350738,-0.160547435,0.050658029,0.243426666,0.004160697,-0.09783186,-0.129345909,-0.296091616],[0.245063961,0.28783077,-0.097001694,-0.006356057,-0.068836629,0.020132527,0.196081638,0.23157841,0.086501278,0.131068692],[-0.135552645,-0.301778257,0.148901105,0.14681685,0.105321251,0.000585372,-0.003307057,0.30300042,-0.092883825,0.08315637],[-0.163434491,-0.192651138,-0.000321995,0.095839821,-0.010470206,-0.095107518,0.213750243,-0.058653872,0.208489001,-0.158887073],[0.028876631,0.067900062,0.300536633,-0.112473607,-0.36676845,0.002767246,0.26040256,-0.036941756,0.162644431,0.202417493],[0.057168528,0.273148656,-0.369750708,-0.081864133,-0.210341901,0.024136305,0.17434302,-0.037930343,0.077091791,0.112867326],[0.030657873,0.306750476,-0.523839831,0.156144276,-0.112920642,0.010097178,-0.190075368,0.167854205,-0.279202521,-0.088301785],[0.078768522,0.000880357,-0.279376835,-0.140204757,0.192683324,0.175325528,0.216678545,-0.204705521,-0.143961012,-0.350970656],[0.155765533,-0.191107988,-0.090265624,-0.175129265,0.029960953,0.212695882,0.123258561,-0.084595673,0.229603559,-0.008433574],[0.10887228,0.104764946,-0.486422956,0.274206102,-0.238068178,0.086165346,-0.176709801,0.276461482,0.011379405,-0.280001819],[0.011389616,0.129107818,0.339050084,-0.097023197,-0.20273909,0.116548881,0.214618072,0.055550195,-0.242114291,0.178968638],[0.285114855,0.069221862,-0.134008989,-0.118651353,0.145111039,-0.079597995,0.083551802,0.272297561,-0.209100232,0.045229487],[-0.187946916,-0.006129429,-0.271728516,0.303914189,0.095304437,0.124573328,0.201244906,-0.222889826,0.043591365,-0.175631151],[0.273523271,-0.191487402,-0.384499669,-0.16082263,-0.024106646,0.091775589,0.074709103,-0.12304955,0.044378944,0.068336576],[0.160255358,0.142822698,0.102887496,0.155829415,0.273935735,0.029918695,0.14404124,0.007915328,0.161883354,0.416903526],[0.057224587,0.151166275,-0.007304074,0.015679782,-0.236476168,0.15177092,-0.311299682,-0.049954843,-0.148319542,0.056320142],[-0.270907491,-0.24552682,0.151727751,-0.118856385,-0.129885733,0.163638711,0.353365541,0.257192075,-0.174712241,0.10637825],[0.164884865,0.084719926,-0.226412877,-0.140879616,0.12454126,0.044942055,-0.187602982,0.084578849,-0.205337703,-0.267635345],[0.080112308,-0.186537862,0.008511429,-0.005948379,-0.353703022,0.123131983,0.139025837,0.033731252,0.121448986,-0.314630181],[0.237556562,0.302838922,0.041278448,-0.206858456,-0.270277649,-0.023144372,-0.211558223,0.096492626,-0.265788943,-0.098887607],[-0.050202068,0.046207704,0.006902525,-0.066979758,0.070508271,-0.272179484,0.121986732,0.152527511,-0.096532166,-0.13423568],[0.000761118,0.250320584,-0.014006706,-0.110237427,-0.218979448,0.357589871,-0.134509206,-0.103354871,-0.213130713,0.026257752],[0.153492182,-0.021699922,0.059806965,-0.081222847,-0.199555472,0.252651155,-0.157310992,-0.181311995,-0.153093725,0.184117213],[0.125391677,0.225759909,-0.012245751,-0.262816876,0.032470912,-0.151337638,-0.169822648,0.100908406,-0.225447133,-0.064565361],[-0.187697038,0.20085077,-0.429487556,-0.186025083,0.018467259,0.110655345,-0.234670445,-0.237892583,0.059448082,-0.217364609],[-0.051175106,0.167422652,-0.035876676,0.063730359,-0.129862696,0.050285261,-0.282142252,0.288995892,0.140929356,-0.304753542],[-0.021705573,-0.199136183,-0.120570347,0.134073019,0.003419445,0.079157367,0.106959209,-0.041211434,-0.278779387,-0.382115334],[0.231967613,-0.125407919,-0.045877725,0.084179722,0.14763698,0.068377517,0.068254516,0.227930754,-0.155155003,0.157819346],[0.034853596,0.332830161,-0.106854931,0.254027426,0.0485957,-0.420947134,-0.159981802,0.051201936,-0.064970799,-0.075031571],[0.082317092,0.140145183,-0.456582665,0.262639016,-0.04599303,0.183693692,-0.07106562,0.268153071,0.082998261,0.084012024],[-0.176327497,0.310682893,-0.25783211,0.217859834,-0.214571923,0.223326981,0.006574464,-0.261385649,0.111998923,-0.266244143],[-0.209073916,0.077654175,-0.023319872,0.217961535,-0.183982462,0.216471776,0.155554056,-0.045209255,-0.344127208,-0.267669499],[-0.099747322,0.161974877,-0.156960413,0.232610121,-0.081904359,0.342006773,0.000346116,0.297550708,-0.040997542,-0.409546614],[-0.342548788,0.10745205,-0.199937135,-0.238619402,0.304751158,0.182415605,0.10155537,0.145391271,0.128830388,0.203123525],[-0.01843298,-0.089442357,-0.250099152,-0.116101928,0.002872524,0.225806132,-0.332877547,-0.103629075,0.081328057,0.178418264],[0.244525194,0.066199861,-0.124450177,0.069651671,-0.193884879,-0.148790732,-0.070838936,0.290585548,0.060353842,0.072726548],[-0.089744374,0.085253656,-0.08238548,-0.213927135,-0.151469097,-0.118178494,-0.330425054,0.16756478,0.107296713,-0.097585209],[0.084910467,0.004762972,-0.274534166,0.036989987,-0.112827957,-0.060898993,0.097310685,-0.07592047,0.129149839,-0.257641405],[-0.005958414,-0.191785395,-0.487941444,0.024743771,-0.03929561,0.109779038,-0.214303076,-0.262079269,0.100086026,0.077840164],[-0.189440936,-0.006195372,-0.317966372,-0.01402415,0.077762716,-0.296828508,0.032671537,-0.017392134,-0.19686164,-0.018418694],[0.030884465,0.052189179,-0.023496369,0.144990906,-0.284485489,0.343261987,-0.140592277,0.165523544,-0.204684868,0.098059669],[0.320658535,-0.096096456,0.045618545,-0.025300562,0.189083964,-0.109707147,-0.290974468,-0.229954764,-0.097027108,-0.040365096],[-0.024779752,0.3326644,-0.028182326,-0.004834955,-0.284665883,0.077969283,-0.157421112,0.001952697,-0.019125048,0.061498523],[0.194345146,-0.202628687,-0.333824515,0.033363219,-0.332573771,-0.253720522,0.102849297,-0.167966619,-0.361266434,-0.085189454],[0.109090485,-0.083442114,-0.178273484,-0.084571071,0.163146541,0.092376098,-0.088111721,0.189718425,0.165202022,0.258494824],[0.297368914,-0.06334433,-0.336484849,0.007074991,-0.355228186,0.09235315,0.181908607,-0.118221857,-0.21991688,-0.292478025],[0.106068432,0.153636009,-0.14528738,0.11129491,-0.391501397,0.270310819,0.165302336,0.006100624,0.22175467,-0.500019073]],[-0.045980282,-0.062042926,0.246642992,-0.026646143,0.086542241,-0.000124909,0.073495083,-0.000417403,0.083827734,0.120930731]]},{"class_name":"Dense","units":3,"activation":"softmax","weights":[[[0.358840495,-0.353291869,0.169977307],[-0.285372823,-0.157731563,0.017969383],[0.684470296,-0.576351404,-0.573669076],[0.540372193,-0.059621822,-0.45202896],[-0.502705753,0.887146056,-0.597889125],[-0.455153137,-0.673245609,0.755613685],[0.75575453,-0.261008352,-0.3561683],[0.46803695,-0.569218457,-0.073962145],[-0.63095206,0.470986575,0.112001069],[0.619046688,0.224651694,-0.55435884]],[-0.052161641,0.044256948,-0.036879577]]}]}