{"layers":[{"batch_input_shape":[0,60],"class_name":"InputLayer"},{"class_name":"Dense","units":10,"activation":"relu","weights":[[[-0.034983579,0.112154663,-0.247563839,-0.186968908,0.025843067,-0.158858433,-0.012715219,-0.154377654,-0.590605497,0.159726262],[0.328000695,0.134751484,-0.04861724,-0.29155606,0.048765831,0.223121136,-0.116166726,0.164541513,-0.435682386,-0.09390974],[0.235328719,0.048454303,-0.020028621,-0.142201439,0.191021204,0.038810138,0.061977599,0.216054142,-0.475267917,-0.223478019],[-0.123336434,-0.298507214,-0.195044592,0.075575784,-0.162657171,-0.21764648,0.197988749,-0.000707696,-0.233363748,-0.101853631],[-0.029843936,0.156594351,-0.067732386,-0.425096214,0.224881053,0.268355131,0.107675098,-0.098294072,0.065379709,0.351282179],[-0.262676239,-0.158592075,0.228073686,-0.293499976,0.150486678,0.256044328,-0.15192163,0.211226761,-0.460608393,0.054954138],[0.34609881,0.122403264,0.038429391,-0.143758878,0.267911881,-0.203761533,0.142617434,0.186418086,-0.4727422,0.156796858],[0.175252348,0.055517644,-0.154185325,-0.477928609,0.308149159,-0.257273823,0.199690834,-0.03001787,-0.355357349,-0.042526081],[-0.116173595,-0.243918076,0.089810699,-0.180818528,0.358607113,-0.082646281,-0.036513571,-0.241239578,-0.229968861,-0.005058353],[0.182450145,-0.142169163,-0.271720469,0.214095384,-0.098297402,-0.202903464,-0.265931636,-0.185026392,0.232682943,-0.37337774],[0.217849135,-0.248212412,0.364146173,-0.234855995,0.089753613,0.091714591,0.038745645,-0.252362996,0.037196312,-0.031453911],[-0.191162229,0.159762681,0.073768847,-0.182360575,-0.116941847,-0.20928587,-0.335612684,-0.113957897,0.045340218,-0.25297609],[0.309470326,0.219032854,-0.32351324,-0.3167606,-0.186053395,-0.212826312,-0.005457968,0.047406863,-0.173965961,0.06062483],[-0.073359437,0.130806163,0.105827808,-0.395648688,0.046117648,-0.132453874,0.017350264,-0.280282497,-0.297120333,-0.152161971],[0.204829589,-0.007285626,0.191251397,-0.022213675,-0.056341533,-0.09291131,0.182634234,-0.227024734,-0.444870949,0.196641296],[0.111574635,0.114071012,-0.05981075,0.321610004,0.152165055,-0.159772888,0.04492119,-0.111991949,-0.024134513,0.342863411],[0.073289916,0.044464655,-0.11038059,-0.240085617,-0.026725272,0.306529284,-0.174304903,0.085424684,0.248329714,-0.220451906],[-0.110720113,-0.276188225,-0.201317027,0.320990175,-0.204047009,-0.065764308,-0.035871785,-0.279307693,0.61220938,-0.003436256],[0.353036523,0.11513859,-0.155857772,0.014946933,-0.036597874,0.108992577,-0.088001274,-0.232052147,-0.230481267,-0.100823857],[0.125965327,0.041214503,-0.105868064,-0.442354113,0.364883095,0.200343058,-0.212089524,0.109648205,-0.350965738,0.107776582],[0.225606322,-0.217527732,0.033599507,-0.41099903,-0.019923491,-0.251880467,-0.089962468,-0.280123442,-0.337057143,0.02864432],[0.195158556,-0.161926836,-0.050514046,-0.003223995,-0.276076078,-0.005929227,-0.154510036,0.15447244,0.238402396,-0.103680946],[0.304114074,0.020518212,0.079258442,-0.074236639,-0.198307097,-0.085593209,-0.237797096,0.246492445,0.068121597,-0.265840501],[0.030958626,0.02083208,-0.10761968,0.486571312,0.04848576,-0.060496673,-0.029106984,-0.197665721,0.367926836,-0.268423706],[-0.1644907,0.144035786,-0.250741869,-0.060487244,0.33829245,-0.108224712,-0.010423468,0.258066267,-0.589123547,-0.167632312],[0.151938796,-0.219788507,-0.121253513,-0.472194403,-0.148982644,0.136777893,-0.071539886,0.256152332,-0.46270442,-0.280098706],[0.318855554,0.081314638,-0.015673272,-0.013829562,-0.149628222,0.205161706,0.0240399,-0.059031948,-0.176851869,-0.03863411],[-0.253008276,0.06488923,-0.072304025,0.385274887,0.007088128,-0.050307233,-0.033437308,-0.095088027,0.200875506,-0.344937384],[-0.223640844,0.186031163,0.172298804,-0.123865403,0.006707813,0.197265446,0.219027519,-0.0228917,-0.143240988,0.161662564],[0.111858957,0.011542585,-0.199208006,0.354048491,0.163054273,0.015314635,-0.209126815,0.093140781,0.181715965,0.178669214],[-0.149591789,-0.12494079,0.077412866,-0.468533963,0.239867806,0.233521968,-0.173792228,-0.064712472,-0.336541533,-0.027106021],[0.026996261,0.204397276,-0.220796645,-0.073417135,-0.132070601,0.192960128,-0.096759379,0.179896414,-0.497963697,-0.235895321],[0.220081434,0.169658095,-0.063685022,-0.245743737,0.249857426,-0.017115934,-0.119091533,-0.286651343,-0.61711657,-0.284154356],[-0.316414982,-0.29402855,0.296132177,-0.335012078,-0.185139894,-0.307313293,0.068211779,0.245948076,0.019061958,0.208268791],[0.35895735,0.378185868,0.028185206,0.089012623,-0.159539685,0.17616643,0.1818524,-0.11383085,-0.638941109,-0.116033919],[0.263822585,-0.079192348,-0.18230015,0.366282582,-0.178096354,-0.102582715,0.096503794,0.200588062,-0.001294132,-0.180748045],[0.01876932,-0.287058145,-0.256363422,-0.156990394,0.182277948,0.285415083,-0.290083528,-0.140203953,-0.479696035,-0.210446745],[0.18360056,0.156583801,-0.272970945,-0.210034564,0.118045464,-0.069326058,0.191010505,0.234118819,-0.428459525,-0.058205813],[0.309803963,0.1789428,0.228581011,-0.201651126,-0.101048626,0.126695186,-0.334752053,0.042022239,-0.627866149,-0.161207944],[-0.080428056,-0.1529558,0.184457958,-0.220821574,0.10909465,-0.034488901,-0.018217552,-0.095024347,0.134373397,0.089721836],[0.022468142,0.094468102,0.046370123,-0.144839913,0.125518188,0.095588721,-0.083267644,0.273659497,-0.294551075,0.056039687],[-0.212300226,-0.187508985,0.236019745,-0.530413508,0.108538151,0.085465096,0.301213831,0.225968465,-0.335890025,0.333476901],[0.37060082,-0.159606427,-0.163221806,-0.469086319,-0.087060459,0.271749973,-0.016531369,0.016612211,-0.519625783,-0.233147323],[0.165247872,-0.23663561,-0.186601862,-0.143239215,0.030951193,-0.04706163,-0.309068978,-0.119909883,-0.525408447,-0.008532911],[0.120335765,-0.054729763,0.129780293,-0.123220518,-0.027499901,-0.254853129,0.045096967,0.132301703,-0.486954898,-0.230391592],[-0.032654703,0.301087797,0.298844814,0.048802283,0.321646661,0.040670738,-0.120419867,-0.219524413,-0.23334074,0.148429394],[0.124600179,-0.226818353,-0.164808363,-0.18948552,-0.097236596,0.202759519,-0.179661095,-0.045764346,0.237888888,0.290483624],[0.022912422,0.089558303,0.24864693,-0.44776237,0.133502156,-0.108947761,0.339995474,-0.18454504,0.110662043,-0.095571525],[0.053993557,0.246233806,0.160917565,-0.354238063,-0.195039675,-0.241858438,-0.107113466,-0.282393247,-0.647236228,-0.227087066],[0.125340253,0.16818057,0.039689068,-0.137536168,-0.049477328,0.087275542,-0.313810289,-0.199743837,-0.457731068,0.010124903],[0.097564436,0.084914833,0.112328716,-0.09992177,0.00470943,0.076224901,0.184792578,0.167340204,-0.54152143,-0.151227653],[0.070581965,0.601997018,-0.118330829,-0.265812963,0.156014353,-0.04281025,0.057487719,-0.010242051,-0.507616043,0.128466085],[0.153332502,-0.10071031,0.199625492,-0.539716303,-0.302085161,-0.014240503,0.241625398,-0.301089585,0.112709031,0.195503771],[-0.257841349,0.096690588,0.207479671,-0.489698738,-0.255767375,-0.218618289,0.252395689,-0.174660251,-0.370901853,-0.16175057],[0.054065835,-0.080497444,-0.063801944,-0.363298088,-0.132569969,0.199526325,0.047024269,0.051126868,-0.158651605,-0.107956685],[-0.080969363,0.26078245,-0.269988596,-0.545801699,-0.024356635,-0.197883561,-0.114879087,-0.160365358,-0.329686612,0.162731051],[-0.039084733,0.175300881,-0.352230221,-0.400865734,0.094664238,0.057541605,0.052250095,0.028866818,-0.442875892,0.158531755],[0.16701676,0.189860255,-0.173658073,-0.420381069,0.028729225,0.467619658,-0.195997447,0.035074919,-0.291142046,0.286165237],[0.127098218,-0.398351997,0.158207759,-0.441283911,-0.11691907,-0.538631856,0.000279015,-0.03425584,0.203725442,0.049060695],[-0.147975251,-0.033963397,-0.299703926,-0.054346431,0.058681283,-0.128646851,-0.357702672,0.035538021,-0.751865625,0.105536096]],[-0.086381271,0.018997496,0.065025322,0.267630786,-0.07974714,-0.003643731,0.066992842,0.013111672,0.439510077,0.010803839]]},{"class_name":"Dense","units":3,"activation":"softmax","weights":[[[-0.113449439,0.237656444,-0.585422456],[-0.530321181,0.330585659,-0.678274214],[-0.387500882,-0.520445466,-0.16893442],[0.791828632,0.037380703,-0.550253987],[-0.246977374,0.086103007,-0.168313578],[-0.93817389,0.664178848,-0.186135933],[-0.823699117,-0.708586037,0.228157073],[0.512430072,0.674654603,-0.706863523],[0.502664089,-0.444277406,0.371317774],[-0.563714564,0.103783585,0.529303193]],[0.169628382,-0.157745242,0.009725684]]}]}