{"layers":[{"batch_input_shape":[0,60],"class_name":"InputLayer"},{"class_name":"Dense","units":10,"activation":"relu","weights":[[[-0.212247714,-0.291474074,0.016959472,-0.031671062,-0.039872561,-0.026569337,-0.43713811,-0.545002818,-0.252276927,-0.029720949],[-0.36513266,0.060039733,-0.206667826,-0.444994897,-0.251281351,-0.00040892,-0.186055854,-0.603580356,-0.372661531,-0.177638918],[0.053074207,0.156815097,-0.415820241,-0.079381056,-0.23011364,0.069021702,-0.268623233,-0.294482529,-0.297519952,-0.135753632],[-0.265519887,0.103240758,-0.476215512,-0.768327713,-0.011926301,-0.080306888,0.066430777,0.185451537,-0.131932765,-0.30931589],[0.283080369,0.2112699,0.517411709,0.587184846,-0.187946647,0.02871092,-0.304875195,-0.303032279,-0.045698542,0.054799732],[0.563892722,0.323996454,0.257960498,0.003791671,-0.286027461,0.11018125,-0.205929056,-0.294959098,-0.391957581,-0.09482915],[0.000307679,0.042541113,-0.4252958,-0.278683662,-0.151460141,0.213746473,-0.319960058,-0.159126028,-0.454665989,-0.014912602],[-0.173395351,0.139362246,-0.302191824,-0.254705489,-0.504730403,-0.224085644,-0.067244306,-0.07766106,-0.714816332,-0.016907768],[-0.372364372,-0.149331033,-0.036671799,-0.120788723,-0.231734946,0.193132535,-0.192639753,-0.262789041,-0.319938362,-0.107547507],[-0.052487485,-0.425749362,-0.13387078,0.032772817,-0.010195551,0.122009359,0.32639727,-0.031250451,0.083723947,-0.2165014],[0.263292134,0.324596673,0.125192612,0.298754394,-0.271573603,-0.189971477,-0.154833406,-0.139414445,0.184247002,-0.269105732],[0.035923179,-0.457529515,-0.343153685,0.127428621,0.309109867,0.23518157,0.20078449,0.474096745,-0.504724741,0.23508285],[-0.046716463,0.048885293,-0.203367174,-0.370137841,0.09234938,-0.234114736,0.090023987,-0.416498244,-0.552849531,-0.255788594],[-0.036249671,-0.235411674,-0.087767459,-0.360856146,-0.24819532,0.180282339,-0.031152343,-0.150862157,-0.46421662,-0.206254438],[0.041119177,-0.032994688,-0.054139994,0.004721871,-0.310372204,-0.236403063,-0.300752491,-0.501689374,-0.666430712,-0.004587587],[0.222900406,0.266704679,0.483215541,-0.37975657,-0.007864282,0.278120309,-0.039940424,-0.656351984,-0.044187918,-0.158122554],[0.011577041,-0.434914231,0.020184975,0.289735347,0.077850141,0.37874645,0.296449751,0.465951174,0.02559411,-0.368326008],[-0.211114004,-0.380055934,-0.346660197,0.141620532,0.038608596,-0.189248681,0.148252651,0.567734599,0.143568054,-0.217535362],[-0.282934904,0.217575476,-0.151790395,-0.086235702,-0.173221275,-0.014034411,-0.296661824,-0.338838309,-0.408626169,-0.201919913],[-0.359337538,-0.127144992,-0.015358135,-0.377853662,-0.160862193,-0.341268599,-0.425949931,-0.294219553,-0.590528131,-0.348278254],[0.179924592,-0.046462607,0.076952234,-0.156831786,0.034517035,-0.285236031,-0.383924752,-0.447563738,-0.462914556,-0.193384081],[-0.296050608,0.230716676,0.100092173,0.347387791,-0.121019378,-0.12030527,0.257639498,0.293283701,0.51787895,0.186041847],[-0.132589847,-0.281458855,0.030373381,-0.18267712,-0.26897338,0.469924659,-0.001037036,0.33137697,-0.571519136,0.208542436],[0.161764547,-0.076478422,-0.135373935,-0.395800084,0.252584696,0.104134299,0.469168425,-0.519238412,0.41279918,0.031475611],[-0.370337486,-0.302853346,-0.061314285,-0.326286077,-0.314095795,0.20004642,-0.363173395,-0.607597351,-0.550972342,0.024146611],[-0.337802291,-0.144540325,-0.372484833,-0.529129088,-0.282284856,-0.147715479,-0.183223024,-0.580834568,-0.650666058,-0.290147156],[0.081372887,-0.016513631,-0.048809677,-0.348679572,-0.161475554,0.192845196,-0.060774591,-0.154304326,-0.329880774,-0.103661098],[-0.153145969,-0.31985265,-0.095525205,0.404946238,-0.080471255,0.170199484,-0.396391898,0.315754145,-0.182725355,0.442933887],[0.267434597,0.265819579,0.472875774,0.276195943,0.223613918,0.229071572,-0.264832705,0.177816525,-0.027528666,0.220695436],[0.037478678,-0.134245425,-0.235781968,-0.18758361,0.563263297,-0.183848739,0.484743148,-0.84524411,0.700576425,0.3420403],[-0.214054719,-0.000100045,-0.300254434,0.017654641,-0.034216791,0.172817156,-0.293635488,-0.099773347,-0.252092183,-0.281484097],[-0.325237185,-0.229075253,-0.203213021,-0.066980593,-0.012958001,-0.320513338,-0.410991073,-0.408588737,-0.348406464,-0.027130583],[0.071908191,-0.197159976,-0.048312236,-0.096365966,-0.042441405,0.01644305,-0.153442115,-0.088142715,-0.591402173,-0.496677816],[0.459110171,-0.312827647,-0.468213767,-0.253141582,0.044783119,-0.362005532,0.071853466,-0.039776318,-0.096240371,0.277701199],[-0.069133446,-0.065256089,0.295445532,0.06165047,0.203331023,0.170946687,0.118660264,0.206358939,-0.302989841,0.161249638],[-0.694922805,0.211803108,-0.025341101,-0.293106645,0.313748777,-0.0081182,0.470651388,-0.498007357,0.159389108,0.632314563],[-0.058322337,0.173146993,-0.407428116,-0.385020435,-0.01400561,-0.202764601,0.046631746,-0.580281079,-0.608001173,-0.507053137],[-0.022522375,0.167708695,-0.470927179,-0.17074962,-0.477899849,0.062760606,-0.196620718,-0.590522587,-0.367165029,-0.231179357],[-0.017650325,0.087184168,-0.370017886,-0.216893047,-0.360826463,0.186822295,-0.26837647,-0.548419893,-0.274730951,-0.111194052],[0.293583989,0.123985916,-0.571995199,-0.71127528,0.032415751,-0.001315745,-0.110929213,0.037423018,0.068937443,0.036561791],[-0.256822228,0.205891296,0.814685285,0.06732665,-0.059520517,0.460892171,0.323079407,-0.176763266,-0.047781028,-0.263430953],[-0.059535194,0.037093114,-0.240016818,-0.328648388,-0.146858111,-0.458105475,-0.169653729,-0.533488691,-0.188518718,0.105687067],[-0.038467579,-0.269177318,-0.087135792,-0.279868722,-0.060809474,0.049991783,-0.233554602,-0.112619363,-0.473795146,-0.277200907],[-0.202017695,0.026340626,-0.33539927,-0.444860101,-0.212569833,-0.015970869,-0.248226091,-0.597830892,-0.451374352,-0.316759169],[-0.366969198,-0.331399739,-0.246567592,-0.392437637,-0.2961137,-0.11880789,-0.128383651,-0.605398953,-0.330457389,-0.114442259],[-0.052762035,0.144696608,-0.164099082,-0.155973509,-0.103334829,0.031827711,-0.107314728,-0.268078387,0.093541808,0.270707846],[0.210587755,-0.576909363,0.408142865,-0.469834626,-0.001709638,0.252483308,0.061316341,0.01331079,-0.251244426,0.118993655],[0.285484761,0.389302313,-0.293165475,0.629560113,-0.147170708,-0.632328451,-0.124141596,-0.064210847,-0.259938687,-0.133746892],[-0.383327812,-0.191794559,-0.197550789,-0.40879041,-0.364828169,0.250420064,-0.008788723,-0.300065398,-0.728322089,-0.059755757],[0.11142122,-0.29482615,-0.238708198,-0.439800054,-0.345018744,-0.183144361,-0.029865168,-0.16260995,-0.231044933,0.018162612],[-0.097416364,0.032690451,-0.280526549,0.023456477,-0.188409507,-0.246670485,-0.488770485,-0.186944366,-0.525440037,-0.281112045],[-0.372195333,0.179632977,0.658401012,0.129143804,0.094342455,-0.15911974,-0.050460484,-0.495797515,-0.236596689,0.169350982],[0.80319351,-0.439475119,-0.112563193,0.092470795,-0.081366338,0.370534062,0.028884862,0.423444778,-0.153232649,-0.455432624],[-0.253869683,0.419988602,-0.494429499,0.459686458,-0.403488517,-0.617532969,-0.285905182,0.022411812,0.021278951,-0.193579957],[0.145490766,-0.363948375,-0.266334534,-0.194284871,-0.245869085,0.054099455,-0.290927619,-0.43135947,-0.337602258,-0.117074788],[-0.082195103,0.160304338,0.002503411,-0.166657329,-0.491618544,0.150698394,-0.053660337,-0.34993723,-0.257935256,-0.492882788],[0.051810201,-0.14810212,-0.315099955,-0.154604107,-0.323962003,0.081897847,-0.433464974,-0.141090274,-0.414557904,-0.393813461],[-0.317387819,0.058122151,1.008262515,0.471735924,-0.1134146,0.053004608,-0.008049162,-0.595604956,0.124870263,-0.099276453],[0.291709155,0.276068896,-0.916337132,-0.0585173,0.078537062,-0.500448525,0.066048779,-0.012880939,-0.472733498,-0.621290743],[-0.013294249,-0.018934295,-0.276654989,0.06486515,-0.303500235,0.018703213,-0.00151556,0.252181292,-0.545950532,0.048165906]],[0.12086691,0.071897402,0.187260181,0.239494979,0.20553951,0.050813776,0.20774214,0.336571425,0.460699737,0.219139203]]},{"class_name":"Dense","units":6,"activation":"softmax","weights":[[[-0.383996546,-0.983479023,0.804330826,-0.301846951,-0.482915491,-0.08085528],[-0.18617402,0.332235634,0.358424634,-0.476640582,-0.385721922,0.404391497],[-1.245111346,0.420736045,-0.962730467,0.177025661,-0.619860947,-0.195086315],[-0.129530489,0.433927357,0.166182265,0.189746812,0.788235605,-0.659427583],[0.61841768,-0.633847773,-0.925219238,-0.030347107,-0.463651508,0.158032149],[-0.71019429,-1.172230363,0.033871394,0.246287748,-1.021351099,0.700798988],[0.327145666,-1.094176888,-0.808771849,-0.029687753,-0.512983263,-0.462073356],[-0.757081687,-0.699652076,-0.698488653,-0.659080386,0.324826896,0.194881946],[0.671331048,0.238827869,0.358907998,0.026211901,-0.317849159,-0.995549142],[0.399413735,0.667443633,-0.046354331,-0.419928372,0.097453102,0.486100376]],[0.201649264,-0.090298891,0.056338891,-0.29032734,0.091398098,-0.164417714]]}]}