{"mean":0.333299845,"sd":0.078030668,"labelMaxAbs":0,"layers":[{"batch_input_shape":[0,3],"class_name":"InputLayer"},{"class_name":"Dense","units":5,"activation":"relu","weights":[[[-0.444402307,0.345726699,1.354287624,0.715337098,-0.86237818],[1.709380984,-0.377998263,-0.028734757,-0.692184269,1.177989483],[-0.54376781,0.216575518,-0.05832826,-1.128990173,-0.587644637]],[-0.221089423,0,0.760191202,0.878070951,-0.467181236]]},{"class_name":"Dense","units":10,"activation":"relu","weights":[[[-0.418880999,0.503478348,-0.0199914,0.955373049,-0.047722694,0.261309862,0.96816963,0.421304703,-0.075613335,0.895986199],[-0.012797852,-0.447044104,0.38776049,-0.498317271,0.301176518,-0.018837711,0.378696471,0.31120798,0.449005365,0.064096019],[0.114397831,0.160327077,-0.113770604,-0.371691436,1.182313919,-0.599002957,-1.011789799,-0.583702564,0.44377622,-1.064715147],[0.069556482,0.410150826,-0.012597981,-1.193916082,1.284961104,-0.642565072,-0.361190379,-0.491001874,-0.44653073,-0.493341148],[-0.080529332,0.097733989,-0.49638322,0.662661314,-0.99881345,1.176923633,0.409440637,-0.298605978,-0.602052331,1.075721502]],[-0.022487398,0.455094695,0,-0.08161258,1.097256541,-0.056184478,-0.314023525,-0.106015645,0,-0.383583546]]},{"class_name":"Dense","units":1,"activation":"sigmoid","weights":[[[-0.172053248],[0.769121468],[-0.477964312],[-1.371320963],[0.709638],[-1.417626023],[-1.434252501],[0.004438699],[-0.149328515],[-1.318468571]],[0.419453084]]}]}