{"layers":[{"batch_input_shape":[0,3],"class_name":"InputLayer"},{"class_name":"Dense","units":10,"activation":"relu","weights":[[[0.055776816,0.770613074,-1.858473182,-1.311475158,-2.39969039,-0.130341247,-0.258652478,0.39444685,-0.736520112,1.506776929],[-0.414165407,-2.404623985,1.956256509,0.86203891,2.427059174,1.481642365,0.436497569,1.400708437,2.029039621,-2.037085772],[0.746240735,0.413685113,1.94239819,0.724890172,1.027511358,-2.04104352,0.346875221,-1.979103923,1.31199348,0.170192525]],[-0.069971688,0.693959653,0.915765882,0.294351995,0.58212769,0.135107756,-0.133413777,0.108619392,1.593659163,0.74651581]]},{"class_name":"Dense","units":3,"activation":"softmax","weights":[[[-0.111016989,0.490214974,0.314198345],[1.452718496,-2.943573952,-0.784914553],[0.329238653,2.156058788,-2.235270262],[-2.218250751,2.866972923,-0.460930735],[-0.974209964,2.550855875,-2.327343464],[-2.508487701,-0.780611455,2.84910202],[0.279766858,0.348709077,0.16731067],[-0.728477716,-0.858409464,1.522443175],[1.14090097,0.197788268,-2.648043871],[0.929801345,-2.762673616,-0.307375997]],[0.035896953,-0.260170221,0.004971872]]}]}