{"layers":[{"batch_input_shape":[0,1],"class_name":"InputLayer"},{"class_name":"Dense","units":10,"activation":"relu","weights":[[[-0.098158233,0.51753062,-0.269950718,-0.078958638,-0.380984247,-0.40724653,-0.351449132,0.359586239,-0.064486533,-0.695003152]],[-0.079799108,0.087529466,-0.041817136,-0.060113262,-0.236752078,-0.111736991,-0.219168946,0.076053835,-0.048377089,-0.118769594]]},{"class_name":"Dense","units":10,"activation":"relu","weights":[[[0.335692555,0.094033271,0.285015911,0.43092072,0.413236231,0.281514883,0.277074218,-0.206211433,0.12845175,0.180848703],[0.376217693,0.257287234,-0.142692074,0.156876847,-0.741819739,-0.302529991,-0.317114532,-0.163589358,0.277778894,-0.53810811],[-0.221057892,0.062314495,-0.225664005,-0.299346894,0.033620171,0.555188835,-0.313232183,0.352055013,-0.386118501,0.170215771],[-0.305385172,-0.459465444,-0.362857342,-0.06583298,0.17662628,-0.359860778,-0.518023252,-0.016373355,0.097460218,-0.354901493],[0.194424033,-0.12743488,-0.179008946,-0.007900549,0.353615612,0.548646271,-0.54044354,0.386596233,0.464433312,-0.159321159],[0.230381027,-0.526605129,0.093767926,0.177773684,0.478799343,0.048474982,-0.07140217,-0.068394914,0.063380629,-0.049013633],[0.394034028,0.396986246,-0.144374132,0.297246456,-0.155133352,-0.44487071,-0.286301434,0.178719684,-0.417904049,-0.17457898],[-0.03542129,-0.285909027,0.591535032,-0.323966801,-0.311761826,-0.218491077,-0.218813553,-0.22014451,0.502552986,0.042347353],[0.270949841,0.155064851,0.386893779,0.308535367,-0.389988333,0.226281896,-0.326787502,-0.479678482,-0.107841335,0.163930476],[0.167065486,0.402967155,-0.104749367,0.294397771,-0.328877121,0.278667033,0.1781203,0.125338197,0.034197863,-0.422987819]],[0.065246351,0.05877677,0.075558715,0.003333273,0.012647881,-0.006581357,-0.015104995,-0.044380147,0.06791731,0]]},{"class_name":"Dense","units":1,"activation":"relu","weights":[[[0.448702067],[0.257851094],[0.236418769],[-0.736804783],[0.109332025],[-0.576511383],[0.107382312],[-0.323835224],[0.662434518],{"layers":[{"batch_input_shape":[0,1],"class_name":"InputLayer"},{"class_name":"Dense","units":10,"activation":"relu","weights":[[[-0.12257041,0.423434943,-0.203860447,0.488346875,-0.625996232,-0.510968566,0.316848129,-0.433868498,-0.602196395,0.047855601]],[0.124608345,0.082147196,-0.004276209,0.085290022,-0.104317203,0.046115458,-0.070135586,-0.088052273,-0.095202647,-0.057101965]]},{"class_name":"Dense","units":10,"activation":"relu","weights":[[[0.682770491,-0.359183639,0.102082491,0.222601324,-0.053569138,-0.284463435,0.213180393,-0.538371384,-0.046963308,0.255832165],[0.591858149,-0.347136825,-0.029509582,0.192316636,-0.322923422,-0.055268012,0.324546456,0.120284311,0.252501726,-0.116721109],[-0.265504777,-0.219552755,0.28660804,-0.184185416,-0.425906271,-0.057611853,-0.054206237,-0.442993462,0.316955745,0.477212965],[0.57781589,0.091056764,0.419017047,-0.374000669,-0.009033918,-0.225776747,-0.05734482,0.200589448,0.364527613,-0.536615908],[-0.357477069,-0.081505731,-0.338498682,0.326656193,-0.447160095,-0.443086028,0.190708622,0.453779012,-0.332635343,0.206674635],[0.020987457,0.190528095,0.33509931,0.186554104,0.206626341,0.183689728,0.022539925,-0.582058907,-0.264871746,-0.559271514],[-0.224520236,-0.340874374,0.29696849,-0.228739217,0.404334903,0.35121125,-0.389146298,0.18837361,0.000304839,-0.385709763],[-0.395903498,0.147973463,0.312220991,0.397279024,0.602326214,0.39467749,0.320016891,0.310647875,0.019732514,0.156287953],[-0.00450291,0.543520391,0.086015739,0.01695941,0.417139024,0.162676796,-0.27907455,0.37165454,-0.138228938,0.424369842],[-0.299364179,-0.199931279,0.487709582,-0.214324027,0.098545775,-0.134743497,-0.835087001,-0.182094514,-0.005377606,-0.27317965]],[0.094862506,0.016186619,0.041280366,-0.023225697,-0.005345428,-0.025367342,-0.035600014,0.028209759,-0.077191912,-0.109505624]]},{"class_name":"Dense","units":1,"activation":"relu","weights":[[[0.634818077],[-0.189455345],[0.119923629],[-0.087333649],[-0.167983636],[0.371900201],[0.052903071],[0.712747216],[-0.449040294],[-0.029099289]],[0.047942039]]}]}