{"layers":[{"batch_input_shape":[0,60],"class_name":"InputLayer"},{"class_name":"Dense","units":10,"activation":"relu","weights":[[[-0.087802052,0.02646469,0.064610049,-0.197995245,-0.275141805,-0.268454492,-0.108500108,-0.152248368,-0.300884545,0.193569109],[-0.458991021,-0.029911108,0.234152928,-0.338090867,0.075830951,-0.364409059,0.302792966,-0.458556473,0.024914797,-0.003782072],[0.018312939,-0.074304931,0.124861412,-0.197974756,-0.286554247,-0.399469793,0.273450673,-0.460750371,0.00799848,-0.038621545],[-0.296661645,0.031875204,0.273982376,0.303141207,0.196791261,0.004723081,0.124224432,0.031252652,-0.014497559,-0.038648877],[0.271622837,0.146273822,-0.056896426,0.387002349,0.401180178,-0.001442425,0.144099012,0.49231866,0.385327578,-0.029338788],[-0.018012684,-0.050466824,0.199654475,0.457581908,0.425507456,-0.086315766,-0.229276851,-0.126596451,-0.340405613,0.016982999],[-0.483540714,0.102359451,-0.039080359,0.033462714,-0.376270831,0.150220454,-0.078761995,-0.017229378,-0.139786944,0.111916155],[-0.333994031,-0.083553962,0.09592136,-0.020621754,-0.104357921,-0.159399495,-0.1955055,-0.06317506,-0.174111769,-0.238419443],[-0.321787655,0.286758989,0.107031509,0.031212438,0.018297648,-0.009488918,-0.00882527,-0.159181416,-0.001451922,-0.218957335],[0.02504066,-0.115711242,-0.190047711,-0.288975775,-0.25713861,0.12746495,0.094967559,-0.153422043,0.08028435,-0.036019389],[-0.026504233,-0.249714911,0.039606545,0.171549425,0.181378543,0.108773164,0.240961373,-0.143128961,-0.123205453,0.108400874],[0.086239137,0.252256066,0.007517045,0.083358616,0.107603379,-0.024056377,-0.290465921,0.344754964,0.226515457,0.10102652],[0.029601365,-0.08967118,-0.273439676,0.063504279,-0.184126705,0.065111853,0.313759595,-0.517947853,-0.22510764,0.124048524],[-0.320306122,0.278854012,-0.216816321,-0.333685338,-0.425898015,0.119563639,0.286052287,0.007931859,-0.365981668,0.008827567],[0.073516086,-0.1274371,-0.044869687,0.035418116,0.031427104,0.010080347,-0.173369244,-0.113519795,0.02130056,-0.162694901],[0.012477963,0.303042263,-0.187947869,-0.236380994,0.0386253,0.139925346,-0.299767673,0.456538886,0.308505476,0.07410261],[-0.377926558,-0.130789593,-0.239789635,0.388778001,0.130595744,0.174205452,-0.208269656,-0.307688624,-0.331548065,-0.072067469],[0.273995578,-0.13852407,0.064840756,0.043218575,-0.220773548,-0.299337149,0.15988268,0.401768833,0.11737708,-0.044811647],[-0.483387321,-0.059049554,-0.100924708,-0.508486927,-0.065253526,0.117143311,0.302868187,-0.367859662,-0.244869038,-0.242681414],[-0.329820633,0.186995506,0.2111426,-0.435030341,-0.17735146,0.071236901,-0.148651421,0.023328537,-0.326530814,0.018571191],[-0.197277591,0.19890736,-0.279961348,0.023810219,-0.469826251,-0.360843003,0.205891326,-0.31542182,-0.058307379,0.283216596],[-0.232714683,-0.214656472,0.290356338,0.331248641,0.035130709,0.123038255,-0.196479946,-0.469646215,-0.024315987,0.296209931],[-0.263069659,-0.224322379,-0.034447856,0.082152218,0.076669477,0.626901686,0.043352976,-0.435339004,-0.224101245,-0.095609315],[0.026243711,-0.227548644,-0.033302486,-0.474757493,-0.339050114,-0.154371977,-0.154057458,0.475817472,0.3648718,-0.207628891],[-0.16362828,-0.118605331,0.234350264,-0.523031056,-0.276248097,-0.227386639,0.10346555,-0.346581995,-0.240795419,-0.00223725],[-0.348980069,0.312457263,0.020505562,-0.488325328,-0.197040796,-0.10588292,-0.208270371,-0.377672791,0.075626172,-0.11698626],[-0.268443882,0.117793746,0.24438031,-0.285975993,-0.290398896,-0.193102837,0.06374006,-0.128014013,-0.331862718,-0.152203351],[0.043454748,-0.022517715,-0.000140219,0.254707307,0.250144869,0.432645261,-0.20492214,0.231722116,-0.111161113,0.007519806],[-0.145870507,-0.163917825,-0.155801088,0.040570274,-0.221853033,0.324911982,0.069349848,-0.229503542,0.026589423,-0.163512483],[0.143934667,-0.203739643,-0.08254195,0.097477637,0.171996385,-0.091386691,0.121566094,-0.106467605,-0.162312791,-0.17827332],[-0.078060403,0.242095903,-0.128346562,-0.016069638,-0.353742957,-0.238957077,0.021788355,-0.069589272,-0.159483105,-0.226442188],[-0.172240391,0.124675065,0.06783431,-0.119807914,0.056802258,0.091264345,0.164030001,-0.204140902,-0.144514084,-0.199055731],[-0.119280398,-0.220931754,-0.062947802,-0.119585499,0.010196354,-0.370379269,-0.10719008,-0.029190039,-0.405094117,-0.180084437],[0.049407709,0.242926091,-0.279260278,0.092428513,-0.221356392,-0.310616136,0.039143492,-0.2699489,-0.037393488,0.0069555],[-0.07782343,0.132206261,-0.217283368,0.268749982,0.019246459,-0.239543885,0.250944555,-0.44544974,0.059727136,0.20350787],[0.11395064,-0.151584119,0.087340176,0.230101958,0.192947775,0.190742984,-0.10253346,-0.50633806,-0.154850885,0.071385577],[-0.475655764,0.11622373,0.040798467,0.025903149,-0.492987335,-0.321828008,0.319840938,-0.217907101,-0.096832342,0.16618599],[-0.452757061,0.209396526,-0.160978243,-0.209362492,-0.476318032,-0.311202347,0.071200661,-0.13213253,-0.331310809,0.028539669],[-0.141632572,0.19944948,0.21951066,-0.342652261,-0.364598006,-0.333772749,0.24146685,-0.424197912,-0.069049582,-0.065802082],[0.011476954,-0.118588746,0.310887247,-0.439918309,0.011779857,0.278573394,0.264198661,-0.386277348,0.188227519,-0.08121901],[-0.394992322,-0.12718226,-0.008630714,0.077965684,0.08790613,0.388775945,0.031127414,-0.166367799,-0.414886296,-0.185160205],[-0.063314058,0.034043197,0.085130431,-0.372563988,0.595772028,-0.178248614,-0.045227021,0.074357055,0.249876738,0.229950741],[-0.238655642,-0.227386862,0.109435186,-0.138850927,-0.307010353,-0.309969991,-0.218287826,-0.489348501,-0.208221778,-0.287510842],[-0.152734905,-0.062309206,0.247457772,-0.047580641,-0.251568258,0.086007379,0.232922822,0.010917952,-0.37411055,0.080054209],[-0.173175111,0.184328973,0.170916617,-0.159246534,-0.015075623,-0.331983298,0.053374726,-0.080897093,-0.283655435,-0.163705707],[-0.040928353,0.010901872,0.06817358,0.048155542,-0.390066236,0.434898436,-0.117411256,-0.181000039,-0.28405869,0.037874609],[-0.329187065,0.082740352,-0.000426979,-0.198578835,-0.03922772,0.196517691,-0.236777976,-0.382304162,-0.049260426,0.045481235],[-0.213606194,0.03943814,0.299442083,-0.083237521,-0.206872031,0.546834826,-0.011800074,-0.360411823,0.155465752,0.132689416],[-0.421720296,-0.212668806,0.105906397,-0.284836739,0.014684309,0.097765826,0.069301352,-0.508469284,-0.338969678,0.07832586],[-0.29858923,-0.193685055,-0.047186553,-0.007851596,-0.224406615,-0.337268203,0.353332728,-0.040891312,-0.261619568,0.278376669],[-0.142243952,-0.084186494,0.030218825,-0.34721908,-0.232373744,0.009574516,-0.137372032,-0.038496368,-0.186520606,0.03529368],[-0.110439591,-0.146343961,-0.418100744,0.603462994,0.24956511,-0.592903793,0.167047605,-0.124034613,-0.018368213,0.37768048],[-0.356297344,0.023394197,0.016558331,-0.412297755,-0.117742792,0.590178967,0.24511452,-0.156038299,0.006651981,-0.126638293],[-0.268739134,0.149897128,0.225622937,-0.128332376,-0.494115591,0.25730747,0.198902026,0.002239862,0.099645182,-0.162242115],[-0.26620391,0.303735256,0.288086593,-0.152350813,-0.057256032,-0.039831538,-0.146380842,-0.508298934,-0.23581326,-0.006004929],[0.034488551,0.313657582,-0.15248403,-0.497860014,-0.046510648,-0.210235283,-0.075516641,0.034453113,0.03570335,0.084736325],[-0.135702148,0.042901129,-0.052123256,-0.136302233,-0.194220394,-0.031468783,0.02797549,-0.27750209,0.010401981,-0.153591216],[-0.071171209,-0.201457277,0.085866623,0.235346392,0.57147795,-0.414246291,0.272905111,-0.319959402,-0.227059886,-0.124776073],[-0.32994017,0.17511946,-0.114208274,0.104540169,-0.322103977,0.471250981,0.308987439,-0.151111186,-0.260231405,-0.659710407],[0.064767756,0.186522007,-0.210184321,-0.100260802,0.023887122,0.149543852,-0.042721532,-0.028314117,0.300910145,0.00335337]],[0.199874625,-0.023176922,-0.0099803,0.230977431,0.204810813,0.125648886,-0.062926076,0.225915164,0.206230566,0.008065077]]},{"class_name":"Dense","units":3,"activation":"softmax","weights":[[[0.328075647,-0.553131163,-0.683778405],[0.082365565,-0.363059878,0.428541481],[-0.272570908,-0.066643201,0.704750299],[-0.61012125,0.090453736,-0.041455854],[-0.824690163,-0.064704016,-0.977766395],[-0.230326816,-0.563307643,0.478218675],[-0.227667883,0.20133321,-0.378109485],[0.119875647,-0.552414775,-0.421064138],[1.095879316,0.127449155,-0.011670587],[-0.163684472,0.28324464,-0.243487239]],[0.092732109,0.029318936,-0.102959327]]}]}