{"layers":[{"batch_input_shape":[0,60],"class_name":"InputLayer"},{"class_name":"Dense","units":10,"activation":"relu","weights":[[[-0.026735242,-0.154185951,-0.156541511,-0.03417835,-0.248069659,-0.297394305,0.207087442,-0.304438621,-0.208936095,0.048874684],[0.081000596,-0.07674364,0.095634982,-0.146377802,0.176418304,0.038323838,0.303086638,-0.248435527,0.006218519,-0.367912889],[-0.219437927,-0.262941957,-0.20704031,-0.208603993,-0.372676611,-0.037667863,0.098369822,-0.028504327,0.171456471,0.103191033],[-0.400870383,0.239082441,0.068352103,0.094676927,0.084302776,0.000097072,-0.051806461,-0.38179028,-0.268340379,-0.157720372],[0.024512589,-0.24905014,-0.277029485,-0.431952178,0.315866262,0.291267157,0.231535569,0.078932494,0.083189927,-0.19083634],[-0.175282925,0.239771396,-0.027315021,-0.407741666,-0.307154924,0.113667056,0.374117821,0.098397784,-0.050764121,-0.058378115],[-0.154839471,-0.263914317,-0.012075301,-0.068838961,-0.402348727,-0.02467346,0.30385226,-0.062615216,-0.134334311,0.061399799],[-0.2788665,-0.061870389,-0.050352238,-0.215030581,-0.258056223,-0.059886239,-0.026733428,0.086992979,-0.144759029,-0.194791138],[-0.137840673,-0.360381722,-0.272428185,0.090248458,0.146302551,0.126269951,0.11461629,0.170783132,0.169275761,-0.285312504],[-0.210306227,0.050103057,-0.186050668,-0.069508217,0.161296353,-0.231750116,-0.045087751,-0.109469429,-0.212795407,0.228999048],[-0.177333698,0.128508702,0.108800262,-0.254443884,0.018400425,-0.192601129,-0.121344537,0.288788408,0.182202533,-0.292710155],[0.053837031,-0.259919733,-0.073491625,0.073340863,0.123569369,-0.194380686,-0.238045678,-0.316099942,-0.247908741,0.132991269],[0.076857887,-0.352039278,0.191529885,-0.03604411,0.14653419,0.007440777,0.263676763,-0.332167625,0.05920938,-0.081501327],[-0.442388207,-0.076999046,-0.166160017,-0.041448608,-0.318422079,-0.389360398,0.024531938,-0.068894118,0.091288641,-0.014814349],[-0.224938959,0.047681604,-0.188006729,-0.268726975,0.154979765,-0.231465414,-0.215558216,0.187465623,-0.263675869,-0.045089498],[0.111542322,0.175375193,0.000857394,0.037262697,0.029245416,0.149117261,-0.049403489,-0.139126658,-0.131681621,-0.136958018],[-0.168023512,0.157934025,0.363892376,0.133732393,-0.222904339,-0.175848812,-0.012217543,-0.157098666,0.336335361,0.242663607],[0.151140288,-0.078106225,-0.002680212,0.266052097,0.197673649,-0.176746264,0.100949191,-0.404851615,-0.080745868,0.372320056],[-0.311937809,-0.219008014,-0.274151564,0.024033204,-0.384080887,0.098615743,-0.033161089,-0.16116643,0.011170249,0.000707407],[-0.149379849,0.086633056,0.074367441,0.013945827,-0.369023621,-0.143299475,-0.248802185,0.024702568,0.143012479,-0.011661811],[-0.387120336,-0.028325941,0.158536583,-0.455353975,-0.236614496,-0.288190931,0.213338315,-0.141709149,0.226983279,-0.360785246],[0.254642934,0.062557064,-0.212253362,-0.068110272,0.079241082,-0.1694379,0.247004539,0.408703595,-0.065039173,0.20351629],[0.118784048,-0.046828378,0.027315088,-0.145556241,0.252179891,-0.064699933,-0.24673456,-0.00701987,0.027299972,-0.002202383],[0.31208238,0.270947099,-0.158807129,-0.004265997,0.147975311,-0.015895942,-0.05023481,-0.130522162,0.121828817,0.045060422],[-0.172947556,-0.223768458,0.100122802,-0.020978324,-0.210570991,-0.025748864,0.155717537,0.130626902,-0.301989555,-0.304000407],[-0.034716669,-0.365635395,0.116075911,-0.131565168,-0.163562208,0.060717292,-0.095326334,0.129869655,-0.008591869,-0.011318111],[-0.00433624,-0.045274459,0.197130337,-0.324704528,-0.070479237,0.152078927,-0.031615801,-0.287212461,0.057621352,-0.145554245],[0.20533964,-0.237639174,0.073071577,0.173051253,-0.303665519,-0.300140083,0.194602966,-0.063309953,0.324479699,-0.061051771],[0.187313229,-0.081884198,0.079144821,-0.357383192,0.061111886,0.285939485,0.030480694,0.251663595,-0.242957339,0.200055107],[0.400007933,0.307291687,0.234882638,0.298715234,-0.089635573,-0.181674302,-0.103178129,0.139718488,0.164770633,0.199558005],[-0.358653605,-0.278895319,-0.087558448,-0.313644826,-0.18406938,0.140784234,-0.13280119,-0.24680081,0.27005446,-0.434239268],[-0.375206232,-0.362105668,-0.158292308,-0.436181992,0.086206019,0.003400246,0.234572083,-0.200312316,-0.151765898,-0.016074223],[-0.114162236,-0.133733645,-0.112022705,-0.293048054,-0.281154573,-0.249291018,0.280117929,-0.29080528,0.006598989,-0.209388226],[-0.312061161,0.172238693,0.190675318,-0.036935046,0.344723314,-0.028286764,-0.12269301,-0.012575647,-0.112282783,-0.159681365],[-0.196265846,0.226612881,0.300865054,-0.131994173,-0.229881525,0.315603405,0.366755664,-0.289812893,0.307899535,0.076413102],[0.099504761,0.259945989,0.160482556,0.014191964,-0.379996091,-0.102172188,0.039897457,-0.233765766,0.220654905,0.295630276],[-0.160189554,-0.267230272,0.169341296,0.018255813,-0.310562402,-0.166774005,0.205022722,-0.257607758,-0.195623234,-0.331608146],[0.034555439,-0.362463444,0.06076603,-0.199803054,-0.065487564,0.13460499,-0.176986828,0.173918143,0.057242956,-0.096913949],[-0.130223334,-0.123832889,-0.290074348,-0.206247583,-0.326531827,0.16161564,-0.144530252,0.08021903,-0.07131803,-0.29977569],[-0.384729922,0.195441544,0.114591219,0.114780128,0.055126894,-0.081791669,-0.156192645,0.01435482,-0.220300213,-0.281247199],[-0.310565084,-0.099641033,0.346971422,-0.216249973,0.127843559,-0.226985753,0.159049854,-0.376927286,0.006185148,-0.345058173],[-0.243552983,0.112007871,-0.060351282,-0.130407453,0.175977662,0.140356928,0.151226923,0.056670297,0.497116864,0.040082492],[-0.35143742,-0.286591232,-0.132237703,-0.159968778,-0.258742899,-0.40530768,0.131970301,-0.061801307,-0.116105415,-0.378031433],[-0.137978554,-0.360386282,-0.279088885,-0.448541939,0.034880534,-0.278276533,-0.144864827,0.050859943,0.181844577,-0.240282923],[-0.421143055,0.191761628,-0.162930444,0.008026761,-0.245687857,-0.33827734,-0.1001774,0.134300753,-0.176326588,-0.356618464],[-0.232964113,-0.118712083,0.044489853,-0.120685294,-0.016002677,0.281819433,0.385890722,-0.090591446,0.096606813,0.115489043],[-0.297185957,0.155357778,0.217062712,-0.056619849,0.104791775,-0.366819024,-0.209307432,0.060736209,0.115858555,0.107316196],[-0.131081626,0.217210889,0.207720578,-0.437540948,0.296391398,0.117218606,-0.299579918,0.034515027,0.013971966,-0.262006551],[-0.022585755,-0.3745749,-0.039943002,-0.015819259,-0.403009713,-0.383002877,0.024806293,-0.231272474,-0.111785822,-0.239025965],[-0.277824372,0.172207505,-0.320197076,-0.20914571,0.078437462,0.079111896,0.098386325,-0.094308361,0.14685455,-0.437161863],[-0.259360582,-0.178809986,-0.034129284,-0.361742258,-0.275103539,0.091501445,0.104452267,0.182157531,0.209955424,-0.143735155],[0.269143432,-0.134689614,0.084942751,-0.264789432,-0.200985327,0.258292019,-0.07572186,-0.340866536,0.118207715,-0.273629487],[-0.174769789,0.284321994,-0.27972886,-0.436543643,0.012971291,0.107312933,-0.026182493,0.126720786,-0.172140792,-0.060539216],[-0.291584462,0.063026682,-0.18490082,-0.36075449,-0.240923896,-0.426302224,-0.322266996,0.450852036,-0.168149844,-0.087203681],[0.101132296,0.118571579,-0.289970517,-0.194666013,0.045116492,0.033716511,0.024834732,0.144447178,0.179231703,0.119235121],[-0.284443587,0.100821987,0.050261017,0.097932339,0.043780901,-0.15366134,-0.0562644,0.090394139,-0.187946424,-0.389236242],[-0.44864127,0.03766913,-0.026224494,-0.241535783,0.14406985,-0.175462112,-0.20888938,-0.218841106,-0.055360794,-0.166123927],[0.20301725,-0.325908124,0.18074362,-0.362546414,0.098543897,0.039552782,0.108630411,0.139469117,-0.007927342,-0.179156572],[-0.081489459,-0.081232123,-0.47386235,-0.181024447,-0.028735938,-0.205462724,-0.192334786,0.041588616,-0.200132847,-0.014498434],[-0.104787871,-0.277934641,0.092946857,-0.287147731,-0.17208311,0.092756085,-0.188404575,-0.411359876,0.187319219,-0.203940064]],[0.182758272,0.081940822,0.0463643,0.169298783,0.113988325,0.110813625,-0.030903626,0.08096844,0.02197087,0.160653785]]},{"class_name":"Dense","units":3,"activation":"softmax","weights":[[[0.580025613,0.399462581,-0.780935884],[0.602067053,-0.604485035,0.428726256],[0.165291399,0.550242245,-0.149727196],[0.925871313,-0.988152564,-0.079771332],[-0.076118767,-0.486513525,0.538936555],[-0.810252428,0.580054283,-0.151925758],[-0.622141778,0.300541431,-0.325865656],[-0.110277377,0.272160828,0.793899298],[-0.334021538,0.66919136,-0.608745456],[0.289957911,-0.847643197,-0.827269197]],[-0.023943238,-0.054899741,0.060629472]]}]}{"layers":[{"batch_input_shape":[0,60],"class_name":"InputLayer"},{"class_name":"Dense","units":10,"activation":"relu","weights":[[[0.13800697,-0.379757792,-0.051743336,0.333406061,-0.076164693,-0.309265882,-0.200122401,-0.012371872,0.197909981,-0.134795845],[-0.365018904,-0.514281034,-0.102509223,-0.146450296,0.165499777,-0.251041949,-0.033577953,-0.111742035,-0.034888666,-0.01579497],[0.016787138,-0.496241927,0.086750619,0.312258244,-0.201250955,0.180695012,0.090839282,-0.1642088,0.213445082,-0.140309408],[-0.350722939,-0.164704248,0.121109381,0.247187763,0.048974603,-0.420932591,-0.176453635,0.070443399,0.212161809,-0.264381915],[0.377221286,-0.201173559,0.402828515,0.143515512,-0.13664028,0.283576816,-0.269454628,0.426905453,0.390764624,-0.004134475],[-0.310986757,-0.699608326,0.130538523,0.180619657,0.180242732,0.131863609,-0.258767992,0.256388813,0.242354289,0.21536845],[-0.122241415,-0.300809711,0.016160985,0.038851067,0.149656773,-0.11675781,0.026851535,0.031136222,-0.31989038,0.080166668],[-0.346621454,-0.635195911,0.023271209,0.29681161,-0.276952028,-0.031675301,0.005759354,-0.149767265,0.080595948,0.096186504],[0.088828824,-0.648459733,0.159431547,0.189406469,-0.017572861,0.084020428,-0.000790614,0.080228321,0.104709268,0.024308819],[0.115860134,0.118283711,-0.238754079,0.27441749,0.177128658,0.139188886,0.160904229,-0.012255263,-0.276171118,0.051522393],[-0.187684238,-0.621385276,0.3048774,0.12040025,-0.055099677,0.205951482,0.217539489,0.085157044,0.155118853,-0.063663602],[0.077921838,0.273079306,-0.094568022,-0.1140486,0.126679376,-0.374438047,0.080326453,-0.16656813,-0.368333012,0.097634606],[-0.209338441,-0.300599873,0.038988233,0.332481533,0.110922627,0.167767584,0.056901764,0.129112229,-0.100207619,-0.294502139],[-0.243685812,-0.249712601,-0.089955688,0.117936209,-0.073379174,-0.021951672,-0.153882161,0.004457949,0.115909003,-0.160285726],[-0.0943847,-0.729993045,0.288425028,0.331371665,-0.169755355,-0.173857048,-0.225200668,-0.327930659,-0.230732575,-0.005867395],[0.331634432,-0.234699592,0.064166486,-0.025354441,-0.061560471,0.120815597,0.187610149,-0.077558629,0.04700309,0.266955346],[0.013143445,-0.025304094,0.093498528,-0.038121086,0.403105021,-0.286163032,-0.136433229,-0.252206773,0.006526414,-0.212126926],[-0.388322771,0.756393254,-0.391974062,0.173044994,-0.272271693,-0.313016236,0.070379488,-0.411435217,0.187298328,-0.263798326],[-0.073540919,-0.391068548,0.326130629,0.211182222,-0.299810797,0.115350284,-0.117071092,0.052119631,-0.136569142,-0.161609411],[-0.146719858,-0.464571387,-0.171297923,0.336048752,0.119792938,0.187877104,0.155986592,0.282932937,-0.06728784,-0.209174618],[0.015781062,-0.486414313,0.343584031,0.011436891,-0.360652208,-0.222580656,-0.094427466,-0.190318465,-0.158155471,-0.250882298],[0.305019855,0.246288016,-0.181698799,0.08535213,-0.247654945,-0.102939427,-0.059318412,-0.074540302,-0.127616584,0.10266757],[0.052935839,-0.11332202,0.10400755,0.032624178,0.302732676,-0.011182213,-0.037512861,-0.151297599,-0.169346645,-0.112060823],[-0.162719592,0.485075325,0.033736654,0.13348037,0.095242396,-0.221783489,-0.004154515,-0.024422422,-0.111609913,0.028998762],[0.11924395,-0.584708035,0.158596173,0.224659249,0.259184182,0.127786741,-0.002732931,-0.004868709,-0.283289909,0.168651596],[-0.285156161,-0.630689085,0.183722749,-0.02270487,-0.292611361,-0.021802405,0.286066234,0.179969043,-0.332918525,-0.24190706],[0.112029999,-0.605127633,0.33293137,-0.163037628,0.138459086,-0.235769451,-0.056826152,0.110771559,-0.099403419,-0.117005818],[-0.247817799,0.144310683,-0.225048348,-0.101957887,0.043540247,-0.24380891,-0.08980155,0.156135321,-0.116484329,0.113144226],[0.310964167,-0.238081306,-0.094836421,0.091033801,0.049235951,-0.097438037,0.052925933,0.086004362,0.154821262,0.042870454],[0.033812847,0.67445457,0.163593262,-0.099134527,-0.50360477,0.240480661,-0.131105021,-0.016847974,-0.239333406,-0.126494125],[-0.0311152,-0.387756974,0.18422462,0.195316017,-0.287548393,-0.244375408,0.158698827,0.096408844,-0.066741139,-0.230084687],[-0.299982548,-0.56615746,-0.005877224,-0.081349432,-0.008877099,-0.328733563,-0.203716934,-0.302605689,0.04100335,0.15323928],[-0.200987279,-0.448444754,0.284124106,0.244727626,0.251101285,-0.328689039,0.092659421,0.12820363,-0.061479878,0.01826923],[0.200947836,-0.056930203,-0.260198146,0.095267385,0.285854489,0.057157248,-0.240471676,-0.367950588,0.089709878,0.373428375],[0.32044673,-0.448109508,0.290885061,-0.071893863,-0.231448218,0.305795193,0.125362501,0.206945762,-0.210829273,-0.091810204],[-0.265357643,0.451930821,-0.040759448,-0.12789683,0.275100887,-0.198872894,0.068282843,0.039640464,-0.00786599,-0.261587858],[0.107210368,-0.387050569,0.09244366,0.291473895,-0.095089048,-0.045438819,0.179281965,-0.22233279,0.116899155,-0.098137654],[0.09939526,-0.502055168,-0.092493832,-0.006145461,-0.112413876,0.110021271,0.02517858,-0.295927137,-0.005174964,0.071489006],[0.098508656,-0.431360871,-0.129141927,0.103252105,0.223476619,0.021668918,0.279860288,-0.187873945,-0.088130593,0.182215527],[0.265161753,-0.130961388,0.151949242,0.343766868,-0.060751691,-0.463858783,0.022321057,-0.179342076,0.411436021,0.425882071],[-0.32706821,-0.555555284,0.252916485,0.090323105,0.159170836,0.475701958,-0.070194133,0.160647839,-0.059353076,0.094268464],[0.372645974,-0.614892125,0.026168132,-0.083997004,0.205111444,0.111698039,-0.092227362,0.09058091,0.27983889,-0.032487966],[0.11210192,-0.633804083,0.258809686,0.044945616,-0.24391292,-0.23231627,0.20993413,0.084678859,0.111520886,0.084851824],[-0.339973271,-0.595965266,0.131743625,-0.093699418,-0.069894999,-0.197209343,0.071637452,-0.191714928,-0.024800858,-0.025605829],[0.047496554,-0.576375425,0.145501778,-0.034228742,-0.181069434,-0.058668699,-0.205676943,-0.285575598,-0.075871713,-0.124617249],[0.305634975,-0.666381657,0.055107623,0.192256033,-0.286494493,0.287256569,-0.227812052,0.072398983,-0.120419465,-0.201694533],[-0.276511431,-0.247050524,-0.144858375,0.048877649,0.062172513,0.10984309,0.143905848,-0.028109826,0.398703575,0.298934311],[0.21842742,-0.018597385,0.045569956,0.325445324,-0.105597213,-0.082162127,-0.126805052,-0.049681026,0.311694324,0.407656699],[-0.083825134,-0.459905922,-0.175316975,0.185447216,0.025717599,-0.157343686,0.258126944,0.211169779,-0.200532138,-0.139380038],[-0.0617873,-0.70999068,-0.081242628,0.261385053,-0.071648583,-0.12851426,0.046104133,0.224321634,0.243175358,-0.047816493],[0.193177268,-0.474502474,0.322929919,0.261860549,-0.280579597,-0.005956739,-0.245430231,0.049555562,-0.317988336,-0.101786248],[0.293256372,-0.208638519,-0.03310224,0.167621702,-0.174295723,0.298521727,-0.003124536,0.175419629,-0.263292551,-0.088452339],[-0.14836967,-0.082409814,-0.184138715,0.379034698,-0.078808591,-0.274187714,0.223512977,-0.178336814,0.289479554,0.056844007],[-0.164080441,-0.257757574,0.146478221,0.197213203,0.075977735,0.089485161,-0.233499333,-0.250201821,0.134302065,0.133362293],[-0.168456405,-0.451999456,0.179004967,0.334875226,-0.336075485,0.043160371,0.260226727,0.02833505,-0.117118232,-0.256310105],[0.131476164,-0.692267597,0.091670401,-0.038426556,-0.076548092,0.0079649,0.315423191,0.038471818,0.232999563,-0.305894911],[-0.100759,-0.521646798,0.209049344,-0.179301128,0.003212298,-0.145172566,0.240184054,-0.205802098,-0.087335251,0.013968281],[0.271547675,-0.687278688,-0.044281963,0.02870742,0.281004757,0.462505072,-0.095133364,0.200940177,-0.168374285,-0.379234195],[-0.207567051,-0.635477066,-0.282718152,0.029609591,-0.280735224,-0.397154152,0.00028808,-0.298000246,0.529273331,0.508622766],[0.251360744,-0.379036456,-0.103012964,0.235343248,0.303242952,-0.092086546,-0.122440614,0.080731638,-0.402206689,-0.320373476]],[0.097277418,0.510671377,-0.068579368,-0.083480485,0.041709837,0.083238713,-0.03069522,0.020390924,0.055303715,0.076252945]]},{"class_name":"Dense","units":3,"activation":"softmax","weights":[[[-0.792889953,0.067334138,-0.103314072],[1.035250664,-0.515232325,0.013303204],[-0.65950948,0.210611433,0.01449882],[-0.472331524,-0.48948878,0.308945924],[-1.015620947,0.378019601,-0.505790651],[-0.051834878,0.619621873,-0.019320777],[0.002389655,-0.623694718,0.145101875],[-0.40962556,0.557283759,-0.36410886],[0.048664324,-0.173971027,0.937572777],[0.025900135,-0.244373232,0.794330418]],[0.278452516,0.009578656,-0.298512667]]}]}