{"layers":[{"batch_input_shape":[0,200],"class_name":"InputLayer"},{"class_name":"Dense","units":8,"activation":"relu","weights":[[[-0.239570513,0.283667266,0.110588223,-0.034340963,-0.238955289,0.226694927,0.083698727,0.199298307],[-0.165338054,0.320863783,0.282992482,-0.005494231,-0.145265669,0.150145784,0.289821714,0.110964812],[0.052828532,0.004967195,-0.251851618,-0.088577263,0.030326629,-0.011006713,-0.014010452,0.015427301],[-0.143475413,0.093365841,-0.236869901,0.019531632,-0.047687203,0.014902179,0.135650843,-0.219363004],[-0.044468012,0.024750326,-0.228886202,0.254891843,0.240195394,-0.037401482,-0.041945122,-0.007187469],[-0.080583446,-0.079573259,-0.172461376,-0.017570768,-0.106218584,0.109023437,0.126520157,0.111556724],[-0.034467872,-0.175291136,-0.039813202,-0.020433102,0.115068115,-0.107231498,0.141878024,-0.199973628],[-0.001984105,0.305048108,0.223451734,-0.309227288,0.050720595,-0.104225568,0.218481481,0.096430659],[0.01408451,0.017083032,-0.04150613,-0.149918273,-0.205551043,-0.150757343,-0.15886867,-0.030504614],[0.159105569,-0.165337637,-0.358653128,0.140402094,0.123885676,-0.14675279,-0.16200684,-0.146198004],[0.120906532,0.222870588,-0.009336041,-0.191787452,0.052045196,0.039132982,0.098789521,0.012185387],[-0.248596385,-0.054931603,-0.00273566,-0.069755964,0.049715791,-0.079954736,-0.13447161,0.244371712],[0.127546191,0.014282621,0.034027956,-0.020429641,-0.027537191,0.221278384,-0.222960994,0.181752235],[0.003009374,-0.220765755,0.110920347,-0.066098087,-0.106707096,0.130661726,-0.177286863,-0.116999388],[-0.04732297,-0.057794977,0.113914259,-0.057679504,0.002032384,0.292419732,-0.113543101,-0.073482618],[0.003305607,-0.110927552,0.114546336,-0.116240278,-0.211106151,-0.187358648,-0.028213916,-0.148802832],[-0.150717378,0.1111966,-0.091282919,0.045100868,-0.052716825,-0.01759327,0.149897501,0.165596515],[0.205039889,0.003932348,-0.14717561,-0.15649879,0.01871587,0.034716915,0.163462579,-0.161620259],[-0.057481371,0.003244763,-0.02965997,-0.002785232,0.088129021,0.068685398,0.224330291,-0.127453342],[-0.008807332,0.162969396,-0.39402622,0.007229208,0.07627856,-0.241791189,0.155987442,-0.115251131],[-0.00189922,0.032980099,0.212317944,0.043858591,0.055319324,-0.163856894,-0.002005696,-0.002784437],[-0.222537473,-0.173882827,0.209121257,0.010921858,-0.068519063,0.04006746,0.184960485,-0.026113868],[-0.02958666,-0.001815883,0.163941413,-0.030055247,-0.159436733,0.157311305,-0.027716823,-0.045370579],[0.123180181,0.106967799,-0.311726183,0.201815605,-0.014963621,0.102795452,-0.055598974,-0.059229247],[0.145803839,-0.018867791,0.139137745,-0.008909087,0.170179769,-0.042978548,-0.134411186,-0.28140685],[0.068037756,0.149037927,0.265837222,0.098542117,-0.194800988,0.117040806,-0.14765884,-0.017412379],[-0.03676175,0.09554632,0.299719304,-0.132855058,-0.059998058,0.229694963,-0.152052224,-0.119407043],[0.011503297,-0.007542668,0.008400533,-0.093821429,0.196397051,0.134178743,0.000723003,0.253557861],[-0.171309888,-0.098099239,0.003873686,-0.09857551,0.055021882,-0.0671084,0.09922038,-0.047178444],[0.046590328,-0.101963811,0.103420213,-0.025821555,-0.103046358,-0.148130864,-0.158485621,0.16009365],[0.12838465,0.028556611,0.104560465,0.170874342,0.195059523,-0.201604739,0.011526757,0.204443648],[-0.068927698,0.034775339,-0.034241781,-0.115445152,-0.13238731,-0.081667155,0.106978379,0.192785293],[0.059372123,-0.050928239,0.17658259,-0.08079201,-0.059800699,-0.05783077,0.202657357,0.152414978],[-0.153968185,-0.090471819,0.317500263,0.08591973,-0.004934499,-0.080060862,0.261790335,0.144205123],[0.070284702,0.089499161,0.232242584,-0.176924333,-0.104027167,-0.127260491,0.184364185,0.113200545],[-0.159565866,0.115740128,0.115328558,-0.113707237,-0.191333085,0.02700193,0.096703514,-0.041957252],[-0.118572339,-0.112132795,0.036228262,-0.013576713,0.084548511,-0.202469543,0.072981559,0.119081162],[-0.0177819,0.117087163,0.160033464,0.097588517,0.035604212,-0.095205113,-0.034925561,0.093011543],[-0.087622069,-0.007355612,0.143979087,-0.120290905,-0.031160999,-0.086864807,-0.042600237,-0.059864681],[-0.048151571,-0.147297308,0.301524639,-0.106315702,-0.022828786,-0.0282245,0.061371595,0.138828933],[0.028697498,-0.108100481,0.346284926,0.224381849,0.146931693,0.049594365,-0.154817536,0.007611796],[-0.084674954,-0.161859348,0.118820295,0.028751167,0.17142199,-0.069439195,-0.170803905,0.141022891],[-0.044802926,0.089678235,-0.136221915,0.150348365,-0.110043906,0.147478804,-0.259330481,-0.132717207],[-0.037104767,0.128735021,0.098891996,-0.054530308,0.136669278,-0.003642664,0.075884908,-0.083012484],[-0.061636567,0.010827391,-0.195874199,-0.159388095,0.177964702,-0.016530985,-0.017838107,-0.129708365],[-0.105603993,0.006080743,0.121237859,0.124671377,-0.137042582,0.145966798,0.023423942,-0.098574296],[0.011852509,-0.035288159,-0.198865905,-0.102375984,0.139106438,0.120587349,-0.155399948,-0.048987485],[0.029515985,0.157835841,0.106208898,0.140487775,0.147051677,0.236273155,0.030348109,0.096683539],[0.063859165,0.001509408,-0.124736749,0.016584823,0.039902236,-0.110959888,-0.163792193,-0.089160599],[-0.039630491,-0.137047976,0.213450685,0.16671142,-0.247452676,-0.003253057,-0.067283928,-0.057193965],[-0.055209104,-0.003453289,-0.145112365,-0.032159347,0.036172785,-0.061137892,0.000086611,-0.035947941],[-0.009497182,-0.036911383,0.115237884,-0.222902745,-0.105026089,-0.09179157,0.063159004,0.093119241],[0.090899065,0.103487283,0.073931441,0.178299978,-0.103249975,-0.168008685,0.192008227,-0.134009853],[0.011644741,0.098940842,0.020095693,0.095418043,-0.051036596,0.012983875,-0.107585557,0.099582739],[-0.019156968,0.004250893,0.195285574,-0.046612389,0.068291783,0.198471263,0.085662954,0.075309508],[0.149989635,0.054255854,-0.10749805,0.050421387,-0.156975344,-0.131855041,0.11931169,-0.04357658],[0.10873197,0.14637436,0.176921904,-0.16041784,-0.120869748,0.058721095,0.131812766,0.003969179],[0.200749591,0.113805465,0.17020373,-0.137066573,0.091196477,-0.04360998,-0.15417181,-0.085875064],[-0.118301623,0.071670949,0.165412441,0.080432691,-0.113741256,0.204147041,-0.179285407,-0.011846894],[-0.164576769,0.102149174,-0.279041529,-0.038851067,-0.104300715,0.210081547,-0.198192433,0.050013784],[0.133794099,0.057096526,-0.056664698,-0.066628493,0.155397296,-0.055887938,0.021565512,-0.104466014],[0.029035049,0.078186393,-0.280102551,0.069821037,0.023499869,-0.035474643,-0.157225385,0.026238829],[-0.067435376,-0.092474319,-0.293082476,0.084191687,-0.082010187,0.085484944,0.022587385,0.145184115],[-0.051152676,0.215159804,-0.125170693,0.154538885,-0.174814656,0.098156087,-0.042715672,0.109230869],[-0.095596634,0.103001252,-0.046347417,-0.218093768,0.130803317,-0.043129131,0.08202143,-0.011989055],[0.154395744,-0.110636055,0.00129213,0.118773803,-0.070756376,-0.166574493,0.008424548,0.042988554],[-0.027874421,-0.086064614,0.317331731,0.105496816,-0.198444769,-0.040642247,-0.060614284,-0.081384756],[-0.034813922,-0.084473066,0.015256364,0.136480913,-0.051945359,-0.095730186,-0.021267656,-0.109225586],[-0.033323493,-0.009356868,0.063920751,-0.085589916,-0.144147456,0.155072674,0.031836431,0.180287763],[-0.038778909,0.179557547,0.019216498,-0.054047655,-0.116392426,-0.002203664,-0.035717975,0.052645534],[0.222773403,-0.089837901,-0.069924176,0.147737995,0.148782849,0.166309267,-0.006042505,-0.088972017],[0.034140751,-0.118560858,0.069203548,0.004183548,-0.000718798,0.142541483,-0.17253451,0.04076878],[0.157664523,0.01497253,0.014692336,0.068780251,-0.088666834,0.130039483,-0.229388595,0.078135446],[0.041503593,0.026551934,0.032211106,-0.088607647,0.096265934,0.168649435,-0.092993438,0.159969449],[0.05575778,0.054641932,-0.179943472,0.067301817,-0.06941168,-0.122632191,0.078496084,0.155161649],[0.049558517,-0.192793667,-0.071885154,0.024990339,0.000624639,0.094072886,-0.115641654,-0.046126693],[-0.161761507,-0.030095706,0.144936666,-0.143083945,-0.197015852,0.061358046,0.022329684,0.015625607],[0.085279413,0.027112208,0.064459048,0.145647034,0.126947254,-0.043306619,-0.072597332,-0.188793197],[-0.021700118,0.09146145,0.057804022,-0.095781736,0.033122536,-0.122235462,0.120131455,0.024393855],[-0.086429588,0.04312459,-0.080559134,0.135598123,-0.124092869,0.002284037,-0.14655447,0.038828302],[-0.134404361,0.005525716,-0.053464141,0.04244617,-0.070875987,0.10965053,0.164345443,0.098444447],[-0.213898256,0.191058517,-0.015258433,-0.193801045,0.00990756,0.011251939,0.119682238,-0.116427489],[-0.168621421,0.102141015,-0.099633336,-0.127724111,-0.0749176,-0.109598421,0.022545952,0.128846645],[0.161116645,0.046350036,0.018590095,0.038333789,0.066864058,0.167720169,0.003561881,0.13380295],[-0.102486715,-0.112750128,0.143275127,0.003857791,-0.02992041,-0.032578699,-0.055320017,-0.132108584],[0.210963607,-0.014367793,-0.028563395,-0.152387321,-0.153188065,0.190747961,-0.126152858,0.054819629],[-0.161744237,-0.016408563,0.031269863,-0.059464213,0.09107478,0.101399519,0.065743871,0.069950923],[0.033883754,0.02693544,0.00280726,-0.096697085,0.14750056,0.077939063,0.01521023,0.031999081],[0.02685244,0.056081526,-0.130930275,0.032236833,0.120109886,0.046289947,0.054948527,0.107454628],[0.034086674,0.026883235,0.023827912,0.238494113,-0.119455062,-0.105744913,0.057446152,-0.026251651],[0.111002527,0.230604157,-0.227892429,-0.11731036,-0.077257119,-0.063376941,-0.152282193,0.081907712],[0.164335445,0.077200241,0.054125968,-0.107847765,0.002038345,0.092776023,-0.095413059,0.066404246],[-0.220048845,0.195878014,0.124658719,-0.12667042,-0.180923522,-0.061107364,-0.058996722,-0.01140854],[0.108240351,-0.013702003,0.008531095,0.143241748,0.14320153,0.136789382,-0.148787051,0.039713148],[-0.008661804,0.006430479,-0.03043199,-0.183657065,0.082245298,-0.060415134,-0.135661334,0.024260974],[0.067628615,0.102269299,0.000018175,-0.232495993,-0.116371632,0.070463657,0.030592,-0.14020516],[0.009957765,0.198469475,-0.043496311,0.07142099,0.018465552,-0.12192627,0.010642149,0.039427157],[-0.182531163,-0.112761989,0.029069278,0.131672859,0.028269909,0.157071918,-0.178691536,-0.081285954],[0.014824451,0.000076775,0.047461152,-0.145955428,-0.204401672,-0.029336089,-0.041703358,-0.039287481],[0.039834362,0.042647734,0.037383493,0.204196408,-0.153609708,0.142400786,0.048369598,-0.132001013],[-0.151612997,-0.095822647,0.004487056,0.075936377,-0.10399811,0.007089793,-0.147736877,0.048784699],[0.01810699,0.159738556,0.143009797,-0.201753899,0.06127774,0.029428795,-0.088951245,-0.110631809],[-0.104299605,0.011488949,-0.155334264,0.213029876,0.081928015,0.107960798,-0.052699681,0.027597949],[0.03350484,0.035012785,0.077446058,-0.151834533,-0.136501476,0.020245956,-0.1388181,-0.069044262],[-0.10417702,0.031012554,-0.036155563,-0.032263834,-0.046018075,0.144746467,0.057980902,0.173776418],[-0.131314099,0.062853478,-0.016528539,-0.045131773,0.124274537,-0.096267611,0.007294864,0.113992743],[0.164384916,0.214655504,0.032162547,0.022143397,-0.052846577,0.105814509,-0.060747266,0.006119449],[-0.04711983,-0.113883838,0.037910435,0.032048658,0.113386445,-0.099598624,-0.075724356,0.15327388],[-0.047486447,0.213240072,0.051864598,-0.076156467,-0.054396477,0.004457274,0.0863977,0.059460554],[-0.176845208,-0.129410744,-0.104386084,0.097049467,-0.096960537,-0.132082701,-0.03114688,-0.039236508],[-0.070055149,-0.085881643,0.135308862,-0.101863936,0.212385789,-0.092670679,-0.004857077,-0.067864083],[-0.006237167,-0.113886066,-0.078200273,-0.209154278,-0.157014221,-0.027639708,0.023463603,0.022912763],[-0.044770442,0.031291749,-0.021758616,-0.021286579,-0.172038138,0.044959776,0.15200299,0.098050348],[-0.177123278,-0.078332663,0.060656551,-0.102674149,-0.115252741,0.127027795,-0.087300293,-0.135093674],[0.098672621,-0.073216297,0.000782096,0.023403659,-0.011138148,-0.100590318,-0.003387626,-0.047014646],[-0.034595471,-0.068204746,-0.024587408,-0.230999902,0.104846798,0.158919662,-0.047558807,0.069670811],[0.10040123,-0.061686471,0.160327673,-0.064700559,0.132366881,-0.132324576,0.101674296,-0.029056778],[-0.063301973,0.231137723,-0.093318559,-0.081804663,0.034496225,0.059367005,-0.011241207,-0.087320402],[-0.017349226,0.099042125,-0.092388153,-0.120056279,-0.014418665,0.199960932,0.12352442,-0.001307405],[0.154057488,0.019360933,-0.025193023,0.104457982,0.075733967,-0.026889699,0.028742589,-0.131990761],[-0.193563998,0.169769734,-0.047375929,0.002455818,-0.16480054,0.000765706,0.195325181,-0.096579529],[0.028521888,-0.093361594,0.10120526,-0.087392069,0.124127753,0.088517234,-0.190978974,0.059887543],[-0.096000165,0.168127373,0.062475815,-0.172867149,-0.137715146,0.09933757,0.122117519,-0.108470716],[-0.116454519,0.012188876,-0.066863194,0.00272673,0.134305567,-0.085092783,0.000043937,0.166266873],[-0.106283456,-0.107820444,-0.152773201,-0.100484662,-0.041054353,0.089153953,0.100149125,0.030726265],[-0.184172243,0.128698796,0.215321273,-0.009758065,0.01699584,0.181789547,-0.069708683,-0.017143933],[-0.143028006,-0.034456044,-0.008304755,0.132216439,-0.044744395,-0.035110284,-0.078011617,0.014241331],[0.100645594,-0.029737921,-0.104979463,0.114954993,-0.049584713,-0.012276637,0.066781737,0.17539461],[-0.0208911,-0.106884129,0.159822077,0.103851035,0.105771884,-0.035036542,0.066589728,-0.140618235],[-0.135819361,0.095019966,0.120431267,-0.045783579,0.016100565,0.185033515,0.072715238,-0.07723403],[0.015373766,-0.102676407,-0.139499411,0.050033353,0.107609063,0.036354985,0.170655489,-0.068807632],[-0.03124908,0.169148549,0.079719201,0.028743226,0.148106694,-0.03419286,0.089182422,-0.168417037],[-0.131365031,0.125029445,0.123110592,0.064169049,0.118152544,0.083000407,-0.022082902,0.064145193],[-0.205142021,0.206041098,0.082206547,0.084799126,0.053659752,-0.07688529,0.032735709,-0.103182659],[-0.133435503,0.143248394,0.10997849,-0.117152743,-0.179605797,0.105244868,0.005312869,-0.159651369],[-0.059430316,-0.011616534,0.171018437,-0.175816745,-0.098983355,-0.086228028,0.019827507,0.011532555],[0.013780307,0.111089766,0.179890618,0.1214948,-0.106195353,0.100755259,-0.090457477,0.100565217],[0.051342826,0.112606466,0.119068168,-0.017712228,0.124904111,-0.079065911,0.156045467,0.098417938],[-0.107145838,0.154643327,0.012604483,0.148737356,0.15479748,0.165219143,-0.085685827,0.130531341],[0.012308515,-0.019591507,-0.147788435,-0.049648583,-0.06562335,0.03167085,0.029559597,0.046156198],[-0.159745842,0.161895186,0.066239834,-0.096120603,-0.119631819,0.033205464,-0.123082437,-0.174149141],[0.003609401,-0.020623591,0.08008156,0.084663652,0.104487136,-0.050243746,0.132042736,-0.108181745],[0.016669367,0.090593681,-0.129705265,0.025294406,0.061427776,0.058855835,-0.124237977,-0.072850876],[-0.14457725,-0.026331069,-0.108259544,0.089914061,0.047051344,-0.111116163,-0.129682988,0.123835653],[-0.162658781,0.116886698,-0.052337702,0.15808554,0.035837799,0.000903068,-0.041645758,-0.092426799],[-0.106276907,0.133742198,-0.132555708,0.017540544,0.017840201,0.089121245,-0.08194457,0.172307581],[-0.016877441,-0.075091556,-0.186901242,0.033694226,-0.078298345,-0.043309942,0.100681469,-0.12284562],[-0.180757999,-0.089375436,0.112005591,-0.12152075,-0.105854161,0.082597703,-0.043611966,0.047477294],[-0.06270206,0.007697263,-0.132297993,0.002349589,-0.172937065,-0.039440095,0.035643224,-0.018752044],[-0.123778738,0.10976465,0.086798251,-0.178408265,-0.04891583,-0.056571148,0.108354725,0.048106164],[0.109352298,0.120140128,-0.047514122,0.003166061,0.048377369,0.171724111,0.07777252,-0.129787549],[-0.112469397,-0.016453872,-0.052581541,-0.09021233,-0.077831388,0.046698246,0.084131837,-0.040460903],[-0.008116367,0.212300703,-0.050258931,-0.040217698,0.026595382,0.206916794,-0.069340914,-0.100676186],[0.001854767,0.07000789,-0.008004745,-0.125764191,-0.061572921,-0.072113432,0.181567863,-0.093165316],[-0.013992279,0.183648124,0.169779301,-0.181565806,-0.119818486,-0.031846613,-0.096873261,-0.039032519],[-0.156867892,0.132615045,0.015891254,-0.139801264,-0.067995384,-0.040559229,0.141926631,-0.142811686],[-0.182996735,-0.027279895,-0.168007791,-0.148686811,-0.102975167,0.02203095,0.097118914,-0.097711012],[0.109402858,0.030782938,-0.065280214,-0.048858076,0.117716886,0.124853723,0.116336353,0.042571209],[-0.095037177,-0.022979658,-0.0694618,0.004686848,-0.003838672,-0.107916318,-0.136763066,0.13418977],[-0.019701732,0.163732082,0.109717891,0.04535963,0.139280334,-0.08698453,-0.133427247,0.002579276],[0.090070017,-0.048425373,0.131005645,-0.176227778,0.133273438,0.187934712,-0.107812144,0.0985016],[-0.065877311,-0.009657968,0.139400616,0.085050657,0.140213847,-0.002110946,-0.056659006,-0.016757203],[0.050909128,0.023731239,0.104336083,-0.070452943,0.080118939,0.090071283,0.006869001,-0.03842254],[-0.038438763,0.006471016,-0.039562643,-0.092293769,0.082390897,0.021542126,0.109331779,0.009817982],[0.045886185,0.107306667,0.142473593,0.035190381,-0.007467835,0.121219158,0.120210409,0.068939134],[-0.070794128,-0.041701384,0.114080966,0.093228906,0.145230159,0.067848027,0.171402931,-0.022901988],[-0.171515033,-0.002599891,0.014621214,0.06572254,0.097403161,0.097920455,0.139168233,-0.076660238],[-0.069659397,0.211360201,0.020675953,-0.026135741,-0.130691335,0.124462329,0.091985546,0.018768668],[-0.004533312,0.074230462,0.020343727,0.098185338,-0.125118643,0.196159557,-0.070540197,0.071714558],[-0.132788554,0.216561913,-0.051976398,-0.0014139,-0.056472499,-0.108569682,-0.103703745,0.036487207],[-0.159261167,-0.065256625,-0.150518402,0.127013072,0.120084293,-0.103234328,-0.017521618,0.149911955],[-0.067482822,-0.00914025,-0.108145073,0.072483465,-0.117450006,0.033180151,0.009394283,0.152568772],[0.04598495,-0.043164209,-0.158957139,-0.019439338,0.047631025,0.100636557,0.029343901,-0.107313506],[-0.028162668,0.181576893,-0.10385064,-0.115916453,-0.149481073,0.107541054,0.053793479,-0.127599627],[0.104775526,0.197917312,-0.155864656,0.025930613,-0.085974917,0.065808594,0.063519925,-0.151801869],[-0.037231907,0.166467339,-0.003033487,0.055862229,0.135750636,0.143765181,0.096517071,0.12782754],[-0.114449166,-0.074237466,0.063681215,0.020492433,0.043096822,-0.115977824,0.03357017,0.095629416],[-0.17275849,-0.092030719,0.049277142,-0.131186873,-0.108031929,0.017992781,-0.088138811,-0.009748158],[-0.124172278,0.139283583,-0.078662701,-0.200427979,0.143777296,0.165248334,-0.138549864,0.064541824],[0.028263936,0.062929861,0.105863698,-0.110984884,-0.185728341,0.090174191,-0.021621838,-0.041557197],[0.015283396,-0.097261772,-0.16961737,-0.05798718,-0.037600707,0.147415251,-0.149119794,0.001045735],[-0.113925122,-0.076314196,-0.008110704,0.040111594,0.111176923,-0.100390442,0.094256707,-0.048680138],[0.067373969,0.059569292,0.190300986,-0.108027123,0.083014503,0.084266461,-0.024273133,0.059510905],[-0.155513316,-0.003645214,0.144787192,-0.019852147,-0.17698805,0.099490173,0.061119579,0.152295023],[0.022168068,0.180404603,0.019486863,0.012116711,0.012024784,-0.099609502,0.021408822,0.135180652],[0.135605216,0.160073832,0.155933291,0.123097792,-0.167938963,0.173877388,0.019793298,0.022838129],[0.12435092,0.214888155,-0.140425026,-0.062806569,0.115366578,0.136126399,0.160043985,-0.072702892],[-0.030399583,0.188873455,-0.031703748,-0.079115435,-0.148836643,-0.087720312,0.026021963,0.127114549],[0.102924369,0.029373443,-0.022236893,-0.03946545,-0.186483726,-0.077641167,0.031240096,-0.11861711],[0.065558203,0.003265549,0.095737159,0.02116595,-0.002575857,-0.019093698,-0.057580248,-0.059611987],[-0.069526546,0.100199483,0.099093728,-0.094365299,-0.146525025,0.030705374,-0.129841059,-0.047236107],[-0.112606063,-0.044771153,0.011283613,-0.106035687,-0.078070298,0.055913176,-0.131902844,-0.063027017],[-0.018068496,0.001300018,0.033701159,-0.060327075,-0.074407242,0.055002615,0.158161908,0.026635477],[-0.025504244,-0.092964374,0.025342736,0.117671534,-0.003933843,-0.042748056,0.119903184,0.065756552],[-0.171810195,0.11453218,-0.007981732,0.011311077,0.092918798,-0.041561317,0.123315111,0.021881029],[0.051375978,0.068798773,-0.10776636,-0.021809636,-0.080774382,0.150060028,-0.132783309,0.09427847],[-0.117273033,0.167091087,0.00758548,0.089224935,-0.017541392,0.007029639,0.137127563,0.083184831],[0.07576815,0.012313005,0.182141766,-0.051119011,0.078193791,0.015563623,0.143640429,-0.068187393],[0.119972005,0.207802668,0.178275183,0.004738399,-0.090918303,0.066433862,-0.027236596,-0.080954552],[-0.077846095,-0.023122109,0.062859647,-0.187890306,-0.047691967,0.072902657,0.163529277,0.164312243]],[0.028890928,0.071492471,0.141198978,0.064745679,0.050219547,0.031612616,0.070965447,0.041283697]]},{"class_name":"Dense","units":1,"activation":"sigmoid","weights":[[[-0.617094815],[0.38917318],[0.266192675],[-0.591720402],[-0.755055964],[0.623408496],[0.774615645],[0.456183046]],[-0.470379919]]}]}