{"layers":[{"batch_input_shape":[0,60],"class_name":"InputLayer"},{"class_name":"Dense","units":10,"activation":"relu","weights":[[[-0.603630781,-0.22247526,-0.079908244,-0.223801687,-0.135920957,0.126301378,-0.258494705,-0.128880039,-0.216628075,-0.325916529],[0.342754036,-0.473655015,-0.15571931,0.229742035,-0.126852468,0.253094047,0.133731768,-0.331153512,-0.098644041,-0.063973673],[-0.067408063,-0.086146824,-0.206887692,0.135798842,0.162780508,0.141635239,-0.038966369,-0.316058517,-0.442754805,-0.546908677],[0.346895933,-0.050535843,-0.406648219,0.37645179,0.333039641,-0.02425972,-0.041924052,0.031564776,-0.478603393,-0.45725131],[0.444721848,0.144123048,-0.17822741,-0.001692289,0.087800749,0.028821958,-0.211769313,-0.129322752,0.061719719,-0.137478098],[0.417194724,-0.001830306,0.146632299,0.416445464,-0.521236241,0.169479042,0.14619717,0.100155108,0.014326499,0.112626478],[-0.639199793,-0.148034677,-0.345417172,-0.240352944,-0.332176685,-0.112547308,-0.203236923,0.026211077,-0.131467149,-0.281106651],[0.196446449,-0.490223914,-0.562695801,-0.028115125,-0.125141606,0.07599248,0.071125276,-0.248373717,-0.362681031,-0.542714596],[0.665447831,-0.179736152,-0.553958356,0.322465479,0.260292113,0.160378173,0.024610711,-0.134070545,-0.383117676,-0.256681293],[-0.490343064,-0.06949649,0.289284974,0.166158125,0.121678896,-0.219768047,-0.306067586,-0.061482288,-0.478374451,-0.097714908],[-0.794649124,0.020172006,0.0108681,-0.132706016,-0.035277102,0.075886309,-0.319174737,0.046875548,0.19162634,0.162186936],[0.014637914,0.061812583,0.003229668,0.410478204,-0.419966251,-0.218794107,-0.43842566,-0.181834519,-0.207035929,-0.161081985],[-0.200339466,0.038001001,-0.199501485,-0.290286541,0.184502706,0.300685912,-0.199052334,-0.070658416,-0.211275861,-0.30470404],[0.021085441,-0.125263244,-0.466430426,0.341360122,0.189804912,0.276978135,-0.002356909,-0.331048042,-0.395467699,-0.343029082],[0.233509004,-0.064462774,-0.489241987,0.024381232,0.021531777,0.098175533,0.117339544,-0.108553924,-0.418377995,-0.220692411],[0.596773744,0.092784114,0.220191285,0.088236883,-0.077003919,-0.104939513,-0.096223414,0.157740876,-0.350057483,0.048764475],[0.551616848,0.346353978,0.318561494,0.182176232,0.097330719,-0.363251358,0.030724728,0.116976492,0.106332533,-0.16247119],[0.769062281,-0.138606101,0.078145616,0.213565886,-0.22224389,-0.36297828,0.256192356,0.007051446,-0.368143946,-0.27711758],[-0.418169647,-0.232113704,0.196616337,-0.407206744,0.161286727,-0.084136613,0.006178304,-0.074242711,-0.446516722,-0.496340722],[-0.111634642,-0.261334002,-0.310326308,0.190994516,-0.034685612,0.15402703,0.245625839,-0.019904245,-0.125387177,-0.168214515],[-0.142579854,-0.047705881,-0.314000756,-0.173495054,0.399616539,-0.242600501,-0.150174692,-0.058207419,-0.054424696,-0.12880449],[-0.064547412,-0.411427021,-0.2243682,0.187198415,0.32935828,0.061371487,-0.107732914,0.10991127,0.088483416,-0.343740374],[-0.384929389,0.284592777,-0.225392073,0.040211819,0.150765255,-0.291332543,0.071677431,0.281876534,0.06356062,-0.4564206],[-0.007038992,-0.485831529,-0.244247988,0.331287444,0.124676704,-0.013973325,-0.323521376,-0.104285814,0.365938693,-0.303821266],[-0.569627881,-0.243817911,-0.089245461,-0.268331528,0.403942376,0.341417879,0.038914982,-0.065730453,-0.57731092,-0.010980367],[0.429315418,-0.17796433,-0.225190446,0.267879486,0.167746782,-0.106407434,0.035663135,-0.530747533,-0.678333104,-0.365193605],[0.049278703,-0.006426772,-0.454810858,0.313872814,0.36629957,-0.003952363,-0.160648569,-0.300065994,-0.579683065,-0.3232131],[0.081775703,-0.150144339,-0.102667384,0.471828043,0.090324931,0.073615894,0.155992538,-0.231895328,-0.354340345,-0.084061287],[-0.227842048,0.405092925,0.028877102,-0.058882322,-0.174242184,0.013684267,-0.13333866,0.235207185,0.448003709,0.089096062],[0.723066986,-0.158185184,-0.175270885,0.459548265,-0.159411758,-0.186259761,0.160809159,-0.260249436,-0.129821315,-0.427418798],[-0.560844421,-0.292745709,-0.304801971,0.035912748,0.143361256,0.14553456,-0.236655414,-0.266182691,-0.337692261,-0.402205676],[0.441202939,-0.437904418,-0.186647728,0.241359457,0.065941975,-0.160872251,0.328602582,-0.106665231,-0.539709926,-0.382058918],[0.352552205,-0.355138361,-0.05639144,0.301350296,0.392274082,0.058119066,-0.168806553,-0.378783643,-0.542519212,-0.366869867],[-0.172620714,0.031185605,-0.160378873,-0.117812321,-0.332312107,0.156821847,-0.081791669,0.002926366,0.08449585,-0.298126251],[-0.010055859,-0.367750347,0.045131072,-0.261847764,0.206875831,0.094672412,-0.209589139,-0.154758215,-0.075839989,0.044860981],[0.321243495,0.26514259,-0.1458994,0.06485974,0.223262608,0.061820854,0.270777315,0.086625151,-0.379017502,-0.689071238],[-0.433045357,0.101763315,-0.35456571,0.012001093,-0.010433373,0.015550997,-0.204276934,-0.153010875,-0.124842204,0.009558334],[0.191010937,-0.334131986,-0.401628047,-0.131555587,0.402145624,-0.133330777,0.258450896,-0.215847492,-0.505015433,-0.108884498],[0.255519509,-0.314491481,-0.264858067,0.309345692,0.335992694,0.105738275,-0.071971804,-0.158978671,-0.568004966,-0.304876834],[-0.074584432,-0.222752616,-0.214025304,0.228564337,-0.083984613,0.445498258,-0.358126879,-0.58982867,0.223408058,-0.328406483],[-0.298156738,-0.238006845,-0.201283187,0.188290447,-0.073720828,0.311390579,-0.124684252,0.10009034,-0.013917229,-0.007321917],[0.227285475,0.362345129,-0.592381597,-0.154725239,0.146721959,0.256309092,0.221480355,0.069520101,-0.667111397,-0.6097579],[-0.263935864,0.04037828,-0.309664756,-0.095273882,0.217930526,0.133428037,-0.227359846,0.174614236,-0.386454105,-0.486023426],[0.12821418,-0.188024253,-0.435021222,0.086137034,0.39160496,-0.165474683,0.261867136,-0.421887428,-0.23146908,-0.216298476],[0.176744267,-0.152658105,-0.318133384,0.17172882,0.388908625,-0.367206454,0.151128337,-0.257549286,-0.591633141,-0.121358886],[-0.01140062,-0.380993217,-0.308421165,-0.105014533,-0.093088582,0.362114459,0.141275883,-0.278731823,0.202088803,0.250301123],[0.277546078,0.040054917,-0.367038488,0.030202232,0.22042802,0.358533353,-0.058675818,-0.194395274,0.016462795,0.25059545],[0.017657574,-0.131902322,0.120236456,0.141822606,-0.050323147,-0.288984299,-0.124833792,-0.385749042,-0.403530091,0.212387428],[-0.425796568,-0.276810318,0.220039442,-0.445695519,0.356374204,0.325967371,-0.182867646,-0.17714569,-0.057529148,-0.503423989],[0.226118639,-0.398540497,-0.311511666,-0.090976767,0.079741009,0.029461009,0.086943686,-0.069520876,-0.577665865,-0.239481762],[0.116878927,-0.430972755,-0.287982851,-0.008879488,0.095841795,-0.223095059,-0.053009078,-0.208493963,-0.234214649,-0.110700309],[0.07689821,-0.414597064,-0.217745155,0.022142464,0.159445986,-0.267565459,0.072733231,-0.361070484,0.057683498,0.069655538],[-0.053549971,-0.182618663,-0.478790075,0.024576169,-0.188980564,0.297346473,-0.100266151,-0.275526166,0.011418177,0.260952771],[0.325182766,0.144114777,0.030464485,0.139843732,0.155731797,-0.241746083,-0.133191586,-0.361833096,-0.163637087,-0.236283332],[-0.288680494,0.06594798,0.018313676,-0.466410786,0.273253292,0.184777498,0.221229523,0.166059524,-0.438279688,-0.117132448],[0.27582112,-0.6139521,-0.282210231,0.16957061,0.239602923,0.120101757,-0.085957721,-0.468875408,-0.649196386,-0.231320396],[0.235094383,-0.426331937,-0.331080616,-0.051635653,0.108418114,0.072404481,0.31796819,-0.293975383,-0.226965144,-0.452352524],[-0.122416876,0.248104587,0.255562901,-0.224593312,-0.243677616,-0.42392084,0.068866774,0.094203949,0.261433512,0.051112857],[0.352891654,-0.460300505,0.040828977,-0.005000466,-0.064672142,-0.040616643,0.071772248,-0.118343294,-0.458747447,-0.134432673],[0.088159524,-0.10351409,-0.034974448,0.252848655,-0.167836964,0.06260056,-0.074704409,0.047826335,-0.13384223,-0.427023679]],[0.116027035,0.138772875,0.226024985,0.122134306,0.022944698,-0.109509155,-0.089107595,0.137867019,0.329228699,0.295501173]]},{"class_name":"Dense","units":1,"activation":"sigmoid","weights":[[[0.449268848],[-0.255737007],[-0.783756495],[0.822869778],[0.716745973],[-0.600934029],[0.741976082],[-0.572988868],[-0.461012632],[-0.880421638]],[-0.103701681]]}]}