{"layers":[{"batch_input_shape":[0,1],"class_name":"InputLayer"},{"class_name":"Dense","units":10,"activation":"relu","weights":[[[-0.27570641,-0.745043874,-0.157258078,-0.447856396,-0.384597629,0.590272486,-0.158282995,0.371384889,-0.56038332,0.643543124]],[-0.028634982,0.073443763,-0.02817329,0.085073367,0.06632416,0.071532629,-0.027532054,-0.052112021,0.0367199,0.030968377]]},{"class_name":"Dense","units":10,"activation":"relu","weights":[[[-0.457089543,0.208075166,-0.243557528,-0.193131313,0.156614557,-0.002850396,0.099301003,0.060502019,0.363206327,-0.236269698],[-0.221677721,-0.12679103,0.32803604,-0.458540022,0.381374568,0.294890493,-0.194575384,0.029703667,-0.089644618,-0.071511686],[0.059828218,0.19781585,0.007468647,-0.260110378,0.412986398,0.392648786,0.048056398,-0.383037537,0.515588582,0.288138866],[-0.143857926,0.274482042,0.052353509,-0.121034868,-0.087374374,-0.40311271,-0.008588257,0.264872074,0.10435728,0.352385432],[0.168432951,0.138853699,-0.064772516,0.170811117,0.516820192,-0.246641025,0.103852808,0.059290461,0.431960642,0.5423792],[0.547659636,0.462013811,-0.522947609,0.492862523,0.032076109,0.200675085,0.071284488,0.393906236,0.015688494,0.440393478],[-0.195463896,0.132074028,0.48910439,-0.005205011,0.537554622,-0.132180303,-0.286283076,-0.356321424,0.518042922,-0.202325895],[0.492345065,0.226158366,-0.010254624,0.339639902,0.045115691,-0.418475002,-0.298748374,-0.569125354,-0.158531144,-0.431752831],[0.20140931,-0.106888771,-0.276869297,-0.309231281,0.028734788,0.42148602,-0.132695571,0.277698368,-0.254971057,0.459105492],[0.290083975,-0.249244869,-0.197511107,-0.137477562,-0.146483153,-0.009980625,0.027604437,0.324389875,0.240728393,-0.345423877]],[-0.051450308,-0.034274511,-0.026336653,-0.045189224,0.047652565,-0.028079983,0.054207653,0.047552906,-0.030422881,0.05099839]]},{"class_name":"Dense","units":1,"activation":"relu","weights":[[[-0.115619689],[-0.326902986],[-0.488540262],[-0.664659083],[0.510026813],[-0.079024486],[0.352740318],[0.716381669],[-0.612403154],[0.229862347]],[0.046846405]]}]}